<?xml version="1.0"?>
<opencv_storage>
<cascade>
  <stageType>BOOST</stageType>
  <featureType>LBP</featureType>
  <height>20</height>
  <width>20</width>
  <stageParams>
    <boostType>GAB</boostType>
    <minHitRate>9.9500000476837158e-01</minHitRate>
    <maxFalseAlarm>5.0000000000000000e-01</maxFalseAlarm>
    <weightTrimRate>9.4999999999999996e-01</weightTrimRate>
    <maxDepth>1</maxDepth>
    <maxWeakCount>100</maxWeakCount></stageParams>
  <featureParams>
    <maxCatCount>256</maxCatCount>
    <featSize>1</featSize></featureParams>
  <stageNum>20</stageNum>
  <stages>
    <!-- stage 0 -->
    <_>
      <maxWeakCount>2</maxWeakCount>
      <stageThreshold>-2.6315712928771973e-01</stageThreshold>
      <weakClassifiers>
        <_>
          <internalNodes>
            0 -1 63 -1025 2080222655 -1 1073725439 -67125269 1878996982
            1073725375 1073692671</internalNodes>
          <leafValues>
            -8.5177230834960938e-01 8.6660224199295044e-01</leafValues></_>
        <_>
          <internalNodes>
            0 -1 39 -146617345 890274194 -2122186721 360825043
            -129586945 268439712 -1987507553 1378179</internalNodes>
          <leafValues>
            -8.0635190010070801e-01 5.8861517906188965e-01</leafValues></_></weakClassifiers></_>
    <!-- stage 1 -->
    <_>
      <maxWeakCount>5</maxWeakCount>
      <stageThreshold>-6.3603138923645020e-01</stageThreshold>
      <weakClassifiers>
        <_>
          <internalNodes>
            0 -1 37 -1 -335564801 -1 2147467263 -277 -1342226449 -16385
            1006600191</internalNodes>
          <leafValues>
            -7.2663551568984985e-01 7.5652986764907837e-01</leafValues></_>
        <_>
          <internalNodes>
            0 -1 41 -904084822 818233345 -1069547363 -737861504
            545489082 185204744 16979227 898577211</internalNodes>
          <leafValues>
            -5.9618157148361206e-01 5.7619458436965942e-01</leafValues></_>
        <_>
          <internalNodes>
            0 -1 48 34741297 1539440378 1069481973 -38275211 268318457
            -1611202691 1064842749 -1880156981</internalNodes>
          <leafValues>
            -5.2707594633102417e-01 5.8715486526489258e-01</leafValues></_>
        <_>
          <internalNodes>
            0 -1 120 -131461108 -1852506047 268501010 286261326
            -668958686 -1734344672 -2111667238 -1299314497</internalNodes>
          <leafValues>
            -5.4349488019943237e-01 5.2420443296432495e-01</leafValues></_>
        <_>
          <internalNodes>
            0 -1 112 -605896144 -710268434 -1489106895 -1243540
            -1244199980 127606783 880564433 -6607537</internalNodes>
          <leafValues>
            -4.2457360029220581e-01 7.1420586109161377e-01</leafValues></_></weakClassifiers></_>
    <!-- stage 2 -->
    <_>
      <maxWeakCount>5</maxWeakCount>
      <stageThreshold>-1.2375781536102295e+00</stageThreshold>
      <weakClassifiers>
        <_>
          <internalNodes>
            0 -1 42 403374835 429413401 -2147417975 -721207157 839007146
            2072125568 545818763 -7341153</internalNodes>
          <leafValues>
            -7.3157894611358643e-01 6.9464284181594849e-01</leafValues></_>
        <_>
          <internalNodes>
            0 -1 66 -172981848 -115278424 -1234703503 -13280940
            -1557089542 -1019019286 -1627289718 -1153727095</internalNodes>
          <leafValues>
            -4.1477468609809875e-01 7.5819909572601318e-01</leafValues></_>
        <_>
          <internalNodes>
            0 -1 70 -800014128 -265147658 1056714416 489691998 -26039912
            -189104269 -54992982 -1356722198</internalNodes>
          <leafValues>
            -3.8100415468215942e-01 7.6351416110992432e-01</leafValues></_>
        <_>
          <internalNodes>
            0 -1 121 -571832312 -12177824 -1627611640 2037590397
            -589434988 -1099006475 -302055544 -1615098214</internalNodes>
          <leafValues>
            -4.3620386719703674e-01 7.3551917076110840e-01</leafValues></_>
        <_>
          <internalNodes>
            0 -1 8 -788294188 -212250539 1358993491 -1787198251 16943617
            -474347383 -1744790869 88539395</internalNodes>
          <leafValues>
            -7.0023834705352783e-01 4.5528343319892883e-01</leafValues></_></weakClassifiers></_>
    <!-- stage 3 -->
    <_>
      <maxWeakCount>6</maxWeakCount>
      <stageThreshold>-1.0299426317214966e+00</stageThreshold>
      <weakClassifiers>
        <_>
          <internalNodes>
            0 -1 25 -1929441757 788492287 2129657535 -93323269
            2013216599 -32769 -536911889 -1</internalNodes>
          <leafValues>
            -5.7627117633819580e-01 7.5097274780273438e-01</leafValues></_>
        <_>
          <internalNodes>
            0 -1 81 -146282365 -539024461 -1865104999 -284977829
            -882540409 -354484093 419595459 804235167</internalNodes>
          <leafValues>
            -6.9673633575439453e-01 5.7534503936767578e-01</leafValues></_>
        <_>
          <internalNodes>
            0 -1 85 645152767 1065320318 -16859265 -1174536193
            -268469140 -1091076097 -152240391 -1431425153</internalNodes>
          <leafValues>
            -5.2468657493591309e-01 6.8880617618560791e-01</leafValues></_>
        <_>
          <internalNodes>
            0 -1 84 337906805 2138887799 -1359155585 -269697155
            -134742563 -2097154 -1342341123 -100737026</internalNodes>
          <leafValues>
            -5.3731715679168701e-01 5.7256776094436646e-01</leafValues></_>
        <_>
          <internalNodes>
            0 -1 12 -4207073 -335602641 -16826369 -335565074 805263138
            -131 493166142 -335862925</internalNodes>
          <leafValues>
            -4.6525028347969055e-01 6.5808027982711792e-01</leafValues></_>
        <_>
          <internalNodes>
            0 -1 67 -1087664382 1892528162 -175042285 2007753857
            143270554 537707044 1227229979 -779136959</internalNodes>
          <leafValues>
            -5.6682592630386353e-01 5.5682617425918579e-01</leafValues></_></weakClassifiers></_>
    <!-- stage 4 -->
    <_>
      <maxWeakCount>4</maxWeakCount>
      <stageThreshold>-1.3075926303863525e+00</stageThreshold>
      <weakClassifiers>
        <_>
          <internalNodes>
            0 -1 21 -285274321 1878994559 -1358974977 787480551
            1610565494 -32769 -29397392 -32901</internalNodes>
          <leafValues>
            -6.1414790153503418e-01 7.6100629568099976e-01</leafValues></_>
        <_>
          <internalNodes>
            0 -1 118 733612823 770723829 -316564457 -2034721896
            846154583 -1082027637 -2000119692 -1342836743</internalNodes>
          <leafValues>
            -7.0383828878402710e-01 6.1500626802444458e-01</leafValues></_>
        <_>
          <internalNodes>
            0 -1 102 -708385921 -81264346 -603859489 1002620675
            -628494898 -644333025 -322315329 -1440568401</internalNodes>
          <leafValues>
            -6.6013145446777344e-01 5.9108781814575195e-01</leafValues></_>
        <_>
          <internalNodes>
            0 -1 18 -1035268314 1195573253 -1031741426 -1357725536
            1484980475 948568070 571097263 -67900774</internalNodes>
          <leafValues>
            -6.4831954240798950e-01 5.7933175563812256e-01</leafValues></_></weakClassifiers></_>
    <!-- stage 5 -->
    <_>
      <maxWeakCount>5</maxWeakCount>
      <stageThreshold>-7.7237552404403687e-01</stageThreshold>
      <weakClassifiers>
        <_>
          <internalNodes>
            0 -1 60 788428215 536735743 2147467263 1073709055 1073708029
            1073741823 -1 -1</internalNodes>
          <leafValues>
            -6.8170428276062012e-01 7.0118075609207153e-01</leafValues></_>
        <_>
          <internalNodes>
            0 -1 11 -2101325 -551239222 -107935234 -70454060 -1182544217
            -546416476 318985555 -145264443</internalNodes>
          <leafValues>
            -6.0037219524383545e-01 6.1871534585952759e-01</leafValues></_>
        <_>
          <internalNodes>
            0 -1 23 -386194897 -320385931 719781902 -1594427860
            -757762689 -1467285492 -833454337 -22021185</internalNodes>
          <leafValues>
            -6.2287402153015137e-01 5.9602361917495728e-01</leafValues></_>
        <_>
          <internalNodes>
            0 -1 47 570635537 -73936477 -1756808229 -552479847 512588725
            -121160528 1623654891 -590658604</internalNodes>
          <leafValues>
            -5.7459461688995361e-01 5.9164446592330933e-01</leafValues></_>
        <_>
          <internalNodes>
            0 -1 54 207031167 735228256 -1722757633 952275035 1929607280
            -340748077 -104478225 -3193509</internalNodes>
          <leafValues>
            -6.7815709114074707e-01 5.1351881027221680e-01</leafValues></_></weakClassifiers></_>
    <!-- stage 6 -->
    <_>
      <maxWeakCount>5</maxWeakCount>
      <stageThreshold>-6.5836423635482788e-01</stageThreshold>
      <weakClassifiers>
        <_>
          <internalNodes>
            0 -1 16 -294779346 -270028801 -285380865 -268456210
            2130589435 1073709055 -360449 -1</internalNodes>
          <leafValues>
            -5.0054287910461426e-01 7.0274168252944946e-01</leafValues></_>
        <_>
          <internalNodes>
            0 -1 127 -1346915036 -1347453021 -4243548 -127516686
            -1879048649 -268959745 -84052 -49</internalNodes>
          <leafValues>
            -5.6346839666366577e-01 6.0085219144821167e-01</leafValues></_>
        <_>
          <internalNodes>
            0 -1 101 -751376905 -49121506 -753182605 -69053398
            -485841927 -7454452 -653597767 -1440157874</internalNodes>
          <leafValues>
            -6.2948834896087646e-01 5.0505071878433228e-01</leafValues></_>
        <_>
          <internalNodes>
            0 -1 62 4464917 -2103712816 -117353697 -9297418 210640312
            -1089920855 1217159656 -1376829424</internalNodes>
          <leafValues>
            -6.4376491308212280e-01 4.7932359576225281e-01</leafValues></_>
        <_>
          <internalNodes>
            0 -1 69 -488461818 -1404641129 -964526057 -699184869
            -257227475 101908492 -1599420278 -1142950773</internalNodes>
          <leafValues>
            -5.2124768495559692e-01 5.5581182241439819e-01</leafValues></_></weakClassifiers></_>
    <!-- stage 7 -->
    <_>
      <maxWeakCount>6</maxWeakCount>
      <stageThreshold>-9.5892310142517090e-01</stageThreshold>
      <weakClassifiers>
        <_>
          <internalNodes>
            0 -1 9 -284233818 -823198212 2146365158 -806433632 -8388623
            -268500996 -1115822234 -337132476</internalNodes>
          <leafValues>
            -4.8214286565780640e-01 6.8060839176177979e-01</leafValues></_>
        <_>
          <internalNodes>
            0 -1 44 -238835710 1938148449 -1324351057 -582758382 1773320
            890890258 -83871829 -7353541</internalNodes>
          <leafValues>
            -6.1619323492050171e-01 5.0742042064666748e-01</leafValues></_>
        <_>
          <internalNodes>
            0 -1 73 780105727 752619973 498090493 701355091 1630223839
            -595441205 411663102 -1340018</internalNodes>
          <leafValues>
            -5.7508265972137451e-01 5.1973140239715576e-01</leafValues></_>
        <_>
          <internalNodes>
            0 -1 56 -1280070864 -82673388 -927989539 -2894444
            -1558016837 -417150073 905984143 -1080094448</internalNodes>
          <leafValues>
            -5.1372379064559937e-01 5.6586384773254395e-01</leafValues></_>
        <_>
          <internalNodes>
            0 -1 93 676216567 990999359 -1071521793 -1179215619
            -1995353059 -74776020 -1638143301 -357016642</internalNodes>
          <leafValues>
            -5.4164320230484009e-01 5.4222273826599121e-01</leafValues></_>
        <_>
          <internalNodes>
            0 -1 117 -50410369 -587506177 2097147903 -1825952195
            -335635217 -1346478753 -319094834 -366281445</internalNodes>
          <leafValues>
            -4.3333864212036133e-01 6.4358419179916382e-01</leafValues></_></weakClassifiers></_>
    <!-- stage 8 -->
    <_>
      <maxWeakCount>6</maxWeakCount>
      <stageThreshold>-1.0416572093963623e+00</stageThreshold>
      <weakClassifiers>
        <_>
          <internalNodes>
            0 -1 79 538977397 -1108590593 -1090584577 -1146290177
            -1250607652 -268566529 -268472321 -327681</internalNodes>
          <leafValues>
            -4.0939596295356750e-01 7.2917729616165161e-01</leafValues></_>
        <_>
          <internalNodes>
            0 -1 100 -1428663809 -1090762763 -65537 1065058303
            -1698963748 -1359020035 -4390921 -1643446273</internalNodes>
          <leafValues>
            -5.0579857826232910e-01 5.8435636758804321e-01</leafValues></_>
        <_>
          <internalNodes>
            0 -1 14 -761267270 -753946140 -233221676 -603467584 24778738
            4663936 637867607 -551824557</internalNodes>
          <leafValues>
            -5.5850839614868164e-01 5.1512229442596436e-01</leafValues></_>
        <_>
          <internalNodes>
            0 -1 113 756923175 777318742 362434872 -1132400487
            -561534617 -1954075951 -1727936064 -489685041</internalNodes>
          <leafValues>
            -6.2404352426528931e-01 4.5134168863296509e-01</leafValues></_>
        <_>
          <internalNodes>
            0 -1 29 -1826391565 -2138956928 -778714793 -498975534
            541106930 143149669 1127295221 -540813872</internalNodes>
          <leafValues>
            -5.5210405588150024e-01 4.6054688096046448e-01</leafValues></_>
        <_>
          <internalNodes>
            0 -1 107 -1262749185 -1080823458 764699349 -1149791654
            147128493 -2003179392 281479552 -1058341</internalNodes>
          <leafValues>
            -4.9461251497268677e-01 5.4798209667205811e-01</leafValues></_></weakClassifiers></_>
    <!-- stage 9 -->
    <_>
      <maxWeakCount>6</maxWeakCount>
      <stageThreshold>-1.0488731861114502e+00</stageThreshold>
      <weakClassifiers>
        <_>
          <internalNodes>
            0 -1 26 -671446354 1824454398 2143203158 -352395266
            -838910741 1048575999 -545275942 -268435457</internalNodes>
          <leafValues>
            -3.3567047119140625e-01 7.4394834041595459e-01</leafValues></_>
        <_>
          <internalNodes>
            0 -1 10 -537949185 -268440834 -285262161 -285233490 -33413
            -1073741825 2113869055 -8441857</internalNodes>
          <leafValues>
            -3.9724496006965637e-01 6.3595879077911377e-01</leafValues></_>
        <_>
          <internalNodes>
            0 -1 40 -736371304 -120481315 151122330 -1244294880
            -1862237747 -53093923 -1987523197 662139823</internalNodes>
          <leafValues>
            -7.2384727001190186e-01 3.6759892106056213e-01</leafValues></_>
        <_>
          <internalNodes>
            0 -1 77 647976599 676626684 201428252 974245988 435705844
            -359557956 772633280 -356791141</internalNodes>
          <leafValues>
            -6.1855262517929077e-01 4.1270428895950317e-01</leafValues></_>
        <_>
          <internalNodes>
            0 -1 97 -112293728 -1614268238 1302986868 1572551816
            -1921548910 795836223 393418133 -269494853</internalNodes>
          <leafValues>
            -4.5654520392417908e-01 5.3140157461166382e-01</leafValues></_>
        <_>
          <internalNodes>
            0 -1 125 -1962732758 -1245585129 -804601450 923730183
            168743584 -234848254 -1878810164 -657489205</internalNodes>
          <leafValues>
            -5.9640568494796753e-01 4.0008172392845154e-01</leafValues></_></weakClassifiers></_>
    <!-- stage 10 -->
    <_>
      <maxWeakCount>7</maxWeakCount>
      <stageThreshold>-1.1023688316345215e+00</stageThreshold>
      <weakClassifiers>
        <_>
          <internalNodes>
            0 -1 72 863895420 935116734 2146303926 1073675262 1073739245
            -1073807617 1962934267 -268435457</internalNodes>
          <leafValues>
            -3.7295082211494446e-01 6.7391306161880493e-01</leafValues></_>
        <_>
          <internalNodes>
            0 -1 35 174551857 -705461549 -922566189 -136330315 581850107
            -356286072 1701446387 -541259344</internalNodes>
          <leafValues>
            -4.9931722879409790e-01 5.0216507911682129e-01</leafValues></_>
        <_>
          <internalNodes>
            0 -1 57 -164517967 -755478568 -409739 -68027660 -1574842181
            -51368286 252936191 -1690172031</internalNodes>
          <leafValues>
            -4.3772277235984802e-01 5.1897394657135010e-01</leafValues></_>
        <_>
          <internalNodes>
            0 -1 61 -419763573 -1372131594 -285806043 -1497461260
            -2143309921 -1371572353 -1195710997 -1075054629</internalNodes>
          <leafValues>
            -3.4720665216445923e-01 5.8886206150054932e-01</leafValues></_>
        <_>
          <internalNodes>
            0 -1 38 537119827 -1466429292 -654290467 -1013444311
            547363874 1244958952 185205243 -2887025</internalNodes>
          <leafValues>
            -4.5425236225128174e-01 4.7502896189689636e-01</leafValues></_>
        <_>
          <internalNodes>
            0 -1 122 -695631460 -598601582 -1073692656 419578076
            -1073531984 -134070142 -2099031654 -1172654054</internalNodes>
          <leafValues>
            -4.5655849575996399e-01 4.5856273174285889e-01</leafValues></_>
        <_>
          <internalNodes>
            0 -1 52 -769927566 1397891435 137373242 924388441
            -1996355672 1786974216 -373283313 792457867</internalNodes>
          <leafValues>
            -4.7191146016120911e-01 4.5883527398109436e-01</leafValues></_></weakClassifiers></_>
    <!-- stage 11 -->
    <_>
      <maxWeakCount>7</maxWeakCount>
      <stageThreshold>-1.3419491052627563e+00</stageThreshold>
      <weakClassifiers>
        <_>
          <internalNodes>
            0 -1 26 -436310226 -1405589765 -1363234836 -1560354818
            -587227605 -1 -16421 -553648129</internalNodes>
          <leafValues>
            -4.4008055329322815e-01 7.1599400043487549e-01</leafValues></_>
        <_>
          <internalNodes>
            0 -1 24 -926210249 -992390189 -942482465 2106627539
            -371647633 -190682790 -909608395 -69468909</internalNodes>
          <leafValues>
            -5.2937108278274536e-01 5.2405017614364624e-01</leafValues></_>
        <_>
          <internalNodes>
            0 -1 116 -554234657 1610485503 -285212677 -1732609477
            -285713153 -18022657 -18874377 -1095043329</internalNodes>
          <leafValues>
            -4.4290885329246521e-01 6.0476207733154297e-01</leafValues></_>
        <_>
          <internalNodes>
            0 -1 83 576730493 1374971391 -66561 1327103463 -294390059
            -32897 1045954431 -1366835625</internalNodes>
          <leafValues>
            -4.3765994906425476e-01 5.0847738981246948e-01</leafValues></_>
        <_>
          <internalNodes>
            0 -1 119 -186897152 1435899719 -1333362231 -119645771
            -502860827 -121729006 -706422351 -524234913</internalNodes>
          <leafValues>
            -5.2866476774215698e-01 4.4993445277214050e-01</leafValues></_>
        <_>
          <internalNodes>
            0 -1 106 216266239 1032246558 153092441 -1354287958
            328337691 419565641 565446109 -537949441</internalNodes>
          <leafValues>
            -6.6208153963088989e-01 3.5371020436286926e-01</leafValues></_>
        <_>
          <internalNodes>
            0 -1 75 -128201062 -649022962 4345988 1929510959 -1878912688
            1359678475 1797163400 -81190001</internalNodes>
          <leafValues>
            -5.1067817211151123e-01 4.8971003293991089e-01</leafValues></_></weakClassifiers></_>
    <!-- stage 12 -->
    <_>
      <maxWeakCount>8</maxWeakCount>
      <stageThreshold>-6.6745793819427490e-01</stageThreshold>
      <weakClassifiers>
        <_>
          <internalNodes>
            0 -1 128 -295440608 -151535625 -1064972 -12587018 -524459
            2013265919 -134217932 -9</internalNodes>
          <leafValues>
            -2.3885349929332733e-01 7.4541282653808594e-01</leafValues></_>
        <_>
          <internalNodes>
            0 -1 30 -5243142 -16646 2143221623 -32 -854658125 -280397888
            1275557107 -581443337</internalNodes>
          <leafValues>
            -4.0465265512466431e-01 5.6109392642974854e-01</leafValues></_>
        <_>
          <internalNodes>
            0 -1 124 -219266410 -764847012 -352585 1493466647 -33613484
            -118554898 -188944424 -92079206</internalNodes>
          <leafValues>
            -4.1404062509536743e-01 5.0311595201492310e-01</leafValues></_>
        <_>
          <internalNodes>
            0 -1 66 -1779201352 -1197343300 -160961675 2134595933
            -1288457557 -515833888 522431967 -272657015</internalNodes>
          <leafValues>
            -3.6387866735458374e-01 5.2665323019027710e-01</leafValues></_>
        <_>
          <internalNodes>
            0 -1 115 -271844224 -674357313 2079850493 -570438404
            133628945 -1614972938 -33750539 -7365155</internalNodes>
          <leafValues>
            -3.6095118522644043e-01 6.0548102855682373e-01</leafValues></_>
        <_>
          <internalNodes>
            0 -1 46 541812587 680284182 696254781 101769229 940075056
            2024407432 989921786 -91521005</internalNodes>
          <leafValues>
            -7.7506804466247559e-01 2.8187593817710876e-01</leafValues></_>
        <_>
          <internalNodes>
            0 -1 33 -66914014 -1588361642 -1807471300 320153740
            -337515392 1107558416 -1220345093 -1351409461</internalNodes>
          <leafValues>
            -4.5813980698585510e-01 4.5814096927642822e-01</leafValues></_>
        <_>
          <internalNodes>
            0 -1 89 41336699 469712894 -16401 1039495149 -1073816079
            -1073840143 -1615462438 -1466221477</internalNodes>
          <leafValues>
            -4.4569662213325500e-01 4.6609917283058167e-01</leafValues></_></weakClassifiers></_>
    <!-- stage 13 -->
    <_>
      <maxWeakCount>8</maxWeakCount>
      <stageThreshold>-9.6970921754837036e-01</stageThreshold>
      <weakClassifiers>
        <_>
          <internalNodes>
            0 -1 15 1950334783 452915183 1325334078 -67436562 993994555
            713029239 1463752127 1325365229</internalNodes>
          <leafValues>
            -3.8238573074340820e-01 6.3861149549484253e-01</leafValues></_>
        <_>
          <internalNodes>
            0 -1 82 -229543497 -168459067 1362210837 96813557 -803368563
            -116834255 -262803051 732670351</internalNodes>
          <leafValues>
            -5.5515706539154053e-01 4.7680944204330444e-01</leafValues></_>
        <_>
          <internalNodes>
            0 -1 2 1210250353 -101291280 -1857303081 -88178540 557908821
            -1148591990 481629021 -556859129</internalNodes>
          <leafValues>
            -5.2656620740890503e-01 4.2250499129295349e-01</leafValues></_>
        <_>
          <internalNodes>
            0 -1 32 -1559969298 -989691622 -1811649533 1493204993
            34263171 -611655678 1093142387 -7663565</internalNodes>
          <leafValues>
            -6.0447770357131958e-01 3.3146572113037109e-01</leafValues></_>
        <_>
          <internalNodes>
            0 -1 114 -236834528 -245675002 -608374786 286598775
            -157663536 -2720548 -1082198796 -1560121586</internalNodes>
          <leafValues>
            -4.2614483833312988e-01 4.5081681013107300e-01</leafValues></_>
        <_>
          <internalNodes>
            0 -1 71 -780151074 -42192897 -1359081888 -1686458714
            -764027264 -1086384303 -1183614278 -882169475</internalNodes>
          <leafValues>
            -3.1729477643966675e-01 6.1693578958511353e-01</leafValues></_>
        <_>
          <internalNodes>
            0 -1 103 -972904448 -1059552892 -1723793277 -1684896628
            1401008145 75530401 276856960 -551371946</internalNodes>
          <leafValues>
            -4.8739185929298401e-01 4.0306919813156128e-01</leafValues></_>
        <_>
          <internalNodes>
            0 -1 86 1351798869 806585909 403704123 -1803251429 436801944
            -1162665919 2046855322 -1298038109</internalNodes>
          <leafValues>
            -4.7465226054191589e-01 4.3174999952316284e-01</leafValues></_></weakClassifiers></_>
    <!-- stage 14 -->
    <_>
      <maxWeakCount>9</maxWeakCount>
      <stageThreshold>-6.0729819536209106e-01</stageThreshold>
      <weakClassifiers>
        <_>
          <internalNodes>
            0 -1 0 -290553430 -8454404 -268480932 -573932520 -545314896
            -549470340 -8583358 -75561647</internalNodes>
          <leafValues>
            -3.2921811938285828e-01 6.5088754892349243e-01</leafValues></_>
        <_>
          <internalNodes>
            0 -1 99 -1401037616 -1716851970 100600920 -33614596
            376724917 -1342177281 787956223 -1073750785</internalNodes>
          <leafValues>
            -4.1789856553077698e-01 5.1797527074813843e-01</leafValues></_>
        <_>
          <internalNodes>
            0 -1 53 1213620597 1393844417 -645917409 -620707699
            -1474660015 -847148925 -1457878340 -543567717</internalNodes>
          <leafValues>
            -5.2077263593673706e-01 3.9749211072921753e-01</leafValues></_>
        <_>
          <internalNodes>
            0 -1 3 -787754497 -519975612 -1744670629 -1052551359
            -2147452783 -1467998201 848826884 268108366</internalNodes>
          <leafValues>
            -6.5930229425430298e-01 2.8311768174171448e-01</leafValues></_>
        <_>
          <internalNodes>
            0 -1 64 603422291 -1390219776 -536936451 -818057997
            -2022220816 -1392541697 -820447814 -841022149</internalNodes>
          <leafValues>
            -3.6036148667335510e-01 5.5335432291030884e-01</leafValues></_>
        <_>
          <internalNodes>
            0 -1 43 -428150238 -1897218524 -285217951 -202410628
            -1707435343 -421593164 123319515 -8662797</internalNodes>
          <leafValues>
            -3.6648014187812805e-01 5.5055594444274902e-01</leafValues></_>
        <_>
          <internalNodes>
            0 -1 110 1141319368 135360577 -1342172719 286139663
            1610993801 -1610432384 1627759321 1066083471</internalNodes>
          <leafValues>
            -7.6047235727310181e-01 2.9056358337402344e-01</leafValues></_>
        <_>
          <internalNodes>
            0 -1 76 -804481800 -1360004 1862168445 456736573 -566458472
            -293902691 1051208360 -1439032578</internalNodes>
          <leafValues>
            -3.8962006568908691e-01 5.1901614665985107e-01</leafValues></_>
        <_>
          <internalNodes>
            0 -1 87 -804829148 -1014939098 1208074587 62772145 184464
            1619558464 -301890598 -2004116917</internalNodes>
          <leafValues>
            -4.8533090949058533e-01 4.1910666227340698e-01</leafValues></_></weakClassifiers></_>
    <!-- stage 15 -->
    <_>
      <maxWeakCount>9</maxWeakCount>
      <stageThreshold>-6.7578762769699097e-01</stageThreshold>
      <weakClassifiers>
        <_>
          <internalNodes>
            0 -1 22 -423645618 -336598338 175050286 1793932974
            -1155548228 1073709050 -16793601 -4459013</internalNodes>
          <leafValues>
            -2.9702126979827881e-01 7.3917806148529053e-01</leafValues></_>
        <_>
          <internalNodes>
            0 -1 80 545271423 704680337 1536512157 1023432952 -74833360
            -1089861624 -384210902 713134505</internalNodes>
          <leafValues>
            -6.0130476951599121e-01 3.9320424199104309e-01</leafValues></_>
        <_>
          <internalNodes>
            0 -1 71 1497849046 -577550193 -1877999028 -847113036
            -1877915648 -27130800 -508896070 -80752485</internalNodes>
          <leafValues>
            -4.7101837396621704e-01 4.0774333477020264e-01</leafValues></_>
        <_>
          <internalNodes>
            0 -1 126 -1126193402 -959618917 -2138986160 -612122558
            -1203533619 -662536192 -1476285952 -1209029689</internalNodes>
          <leafValues>
            -4.9214062094688416e-01 3.9324352145195007e-01</leafValues></_>
        <_>
          <internalNodes>
            0 -1 123 -243315620 1371673157 -1852827233 273373978
            -1065057828 -1308466032 -742882390 -1163236662</internalNodes>
          <leafValues>
            -4.8633983731269836e-01 3.8750183582305908e-01</leafValues></_>
        <_>
          <internalNodes>
            0 -1 98 -1211958832 -1614658352 343998547 900694036
            -1928943480 -2013249384 67139712 530026681</internalNodes>
          <leafValues>
            -4.8204383254051208e-01 3.8012066483497620e-01</leafValues></_>
        <_>
          <internalNodes>
            0 -1 74 -67109686 1358498523 578693822 996310911 -952221884
            259489662 -1078286654 -366297193</internalNodes>
          <leafValues>
            -4.2527642846107483e-01 4.6228441596031189e-01</leafValues></_>
        <_>
          <internalNodes>
            0 -1 111 -138070730 1272784014 -1266562739 2056200903
            -1023290870 -1996455550 1459831715 1065611083</internalNodes>
          <leafValues>
            -4.9829348921775818e-01 3.7996873259544373e-01</leafValues></_>
        <_>
          <internalNodes>
            0 -1 65 -432873576 -269830223 1811644277 -272876713
            -222912712 -1663305739 -747327745 -543489947</internalNodes>
          <leafValues>
            -4.1537907719612122e-01 4.7196766734123230e-01</leafValues></_></weakClassifiers></_>
    <!-- stage 16 -->
    <_>
      <maxWeakCount>9</maxWeakCount>
      <stageThreshold>-1.1684614419937134e+00</stageThreshold>
      <weakClassifiers>
        <_>
          <internalNodes>
            0 -1 5 -2020628242 -486609006 1726803692 -286331156 -35333
            -35160587 1870622602 -2130545</internalNodes>
          <leafValues>
            -2.7287852764129639e-01 7.3859846591949463e-01</leafValues></_>
        <_>
          <internalNodes>
            0 -1 17 -489289179 564593417 -2130452169 155435105
            1103847167 1255145505 -1062960897 -1418729845</internalNodes>
          <leafValues>
            -5.9921693801879883e-01 4.0164875984191895e-01</leafValues></_>
        <_>
          <internalNodes>
            0 -1 58 -2054970967 -817827392 62440341 -2371563 -2054692456
            -1719664506 825737663 -553189360</internalNodes>
          <leafValues>
            -4.9957293272018433e-01 4.1124296188354492e-01</leafValues></_>
        <_>
          <internalNodes>
            0 -1 1 -492892502 -205809058 -1861728873 -41926036 581644675
            -1631616296 965347921 -279211104</internalNodes>
          <leafValues>
            -5.3047472238540649e-01 3.6986041069030762e-01</leafValues></_>
        <_>
          <internalNodes>
            0 -1 92 -1621116353 -1120824941 -1022964587 -1932622391
            1896112572 -41385974 722143770 -1366047544</internalNodes>
          <leafValues>
            -4.3789356946945190e-01 4.4909173250198364e-01</leafValues></_>
        <_>
          <internalNodes>
            0 -1 104 -17897918 -739520748 -1342198032 1946140669
            -1577326843 -1905823754 2147479244 -1291845793</internalNodes>
          <leafValues>
            -4.0093907713890076e-01 5.1074367761611938e-01</leafValues></_>
        <_>
          <internalNodes>
            0 -1 6 -427373878 -515843326 1393655912 -317926170
            -1488815734 -997538640 -1962734973 -78666793</internalNodes>
          <leafValues>
            -4.1074129939079285e-01 4.5984724164009094e-01</leafValues></_>
        <_>
          <internalNodes>
            0 -1 28 -2092608770 -1807203550 84017678 -2060955117
            -1719589616 -377284316 -2002222584 -930676429</internalNodes>
          <leafValues>
            -4.7167545557022095e-01 4.2107677459716797e-01</leafValues></_>
        <_>
          <internalNodes>
            0 -1 105 -105123718 -541213254 503125160 -71352839
            1006140487 234766330 1442125301 -73542226</internalNodes>
          <leafValues>
            -3.2746958732604980e-01 6.0938018560409546e-01</leafValues></_></weakClassifiers></_>
    <!-- stage 17 -->
    <_>
      <maxWeakCount>9</maxWeakCount>
      <stageThreshold>-1.1369236707687378e+00</stageThreshold>
      <weakClassifiers>
        <_>
          <internalNodes>
            0 -1 19 -268456209 -268439554 -1359073554 -876728658
            -151070977 -1140867073 -16843010 -16722</internalNodes>
          <leafValues>
            -1.8991097807884216e-01 7.6029056310653687e-01</leafValues></_>
        <_>
          <internalNodes>
            0 -1 109 788186362 469704439 -65537 402186239 -67174661
            -16908289 -1082458117 -1145896961</internalNodes>
          <leafValues>
            -4.0672522783279419e-01 4.7459441423416138e-01</leafValues></_>
        <_>
          <internalNodes>
            0 -1 91 -1500908048 -1710063418 1124424080 -1115994084
            -1870024259 -1685010247 -1415966469 -1714694720</internalNodes>
          <leafValues>
            -4.2012652754783630e-01 4.6098148822784424e-01</leafValues></_>
        <_>
          <internalNodes>
            0 -1 7 -8915981 -36789656 -4099 -185751774 -807030283
            -753673 1878900656 -5946266</internalNodes>
          <leafValues>
            -4.1991066932678223e-01 4.4264712929725647e-01</leafValues></_>
        <_>
          <internalNodes>
            0 -1 96 -519835104 16941318 687951876 531882285 308879632
            25879649 1908994533 -68502770</internalNodes>
          <leafValues>
            -4.7152462601661682e-01 3.8262563943862915e-01</leafValues></_>
        <_>
          <internalNodes>
            0 -1 78 637747287 135421969 -1324776430 -1375074156
            -1207276929 -1979545440 -939320743 -1436826238</internalNodes>
          <leafValues>
            -6.6134536266326904e-01 2.4578832089900970e-01</leafValues></_>
        <_>
          <internalNodes>
            0 -1 49 -2008308461 -459505262 1495077083 -15951755
            428509989 -1450038894 167843247 -808599249</internalNodes>
          <leafValues>
            -4.1109061241149902e-01 4.6359419822692871e-01</leafValues></_>
        <_>
          <internalNodes>
            0 -1 68 -1360027126 -151011601 2113926006 -621810499
            -1477466190 913808380 629129165 -34238053</internalNodes>
          <leafValues>
            -4.0776047110557556e-01 4.7458642721176147e-01</leafValues></_>
        <_>
          <internalNodes>
            0 -1 45 -348135690 997407861 -1431142794 798195199
            -805667102 1996486527 -1476647169 1744812031</internalNodes>
          <leafValues>
            -4.1166734695434570e-01 4.4832292199134827e-01</leafValues></_></weakClassifiers></_>
    <!-- stage 18 -->
    <_>
      <maxWeakCount>8</maxWeakCount>
      <stageThreshold>-8.6721879243850708e-01</stageThreshold>
      <weakClassifiers>
        <_>
          <internalNodes>
            0 -1 55 -8385 -268435667 -1073741827 -34035 -4173 -268435521
            -34945 2147421547</internalNodes>
          <leafValues>
            -5.0427353382110596e-01 5.8920800685882568e-01</leafValues></_>
        <_>
          <internalNodes>
            0 -1 20 -872419601 -268439553 1828630270 -67129682
            1904206230 -33587201 -163 -469778705</internalNodes>
          <leafValues>
            -3.5746997594833374e-01 6.5694570541381836e-01</leafValues></_>
        <_>
          <internalNodes>
            0 -1 13 -13949961 1877929983 -1879138305 -268448018
            -1090554242 -1 -16814471 -393217</internalNodes>
          <leafValues>
            -4.2325240373611450e-01 4.6039989590644836e-01</leafValues></_>
        <_>
          <internalNodes>
            0 -1 50 -1482952670 -631078528 427934767 -578432615
            -1987465063 151617824 20159169 -582266796</internalNodes>
          <leafValues>
            -5.2849215269088745e-01 3.9298501610755920e-01</leafValues></_>
        <_>
          <internalNodes>
            0 -1 36 1080193483 -587697690 -65537 -436699274 712416461
            -571050755 -321585444 -303073298</internalNodes>
          <leafValues>
            -3.8172084093093872e-01 4.8695698380470276e-01</leafValues></_>
        <_>
          <internalNodes>
            0 -1 95 -940735740 -971542533 -268497107 -37811209
            -1224736992 1354231543 -1792889367 -217409829</internalNodes>
          <leafValues>
            -3.7630563974380493e-01 5.0117117166519165e-01</leafValues></_>
        <_>
          <internalNodes>
            0 -1 108 89080583 -1610231587 1497576533 156367583
            -746472945 -217562468 1136872357 -872417096</internalNodes>
          <leafValues>
            -5.8829975128173828e-01 3.0227759480476379e-01</leafValues></_>
        <_>
          <internalNodes>
            0 -1 51 -67653801 1060859899 577924666 1069235903 -134239234
            1073709055 -1208242184 -1</internalNodes>
          <leafValues>
            -3.5911098122596741e-01 5.5152022838592529e-01</leafValues></_></weakClassifiers></_>
    <!-- stage 19 -->
    <_>
      <maxWeakCount>9</maxWeakCount>
      <stageThreshold>-4.4776767492294312e-01</stageThreshold>
      <weakClassifiers>
        <_>
          <internalNodes>
            0 -1 34 -336271107 -1233334273 -1090519299 2063396863
            -269090955 -1090715780 -1082130443 -8520721</internalNodes>
          <leafValues>
            -2.1340964734554291e-01 7.0962297916412354e-01</leafValues></_>
        <_>
          <internalNodes>
            0 -1 27 -448593935 -55525638 -65667 -571345289 86730576
            -48433413 1071415117 -536885297</internalNodes>
          <leafValues>
            -3.3354949951171875e-01 5.5164104700088501e-01</leafValues></_>
        <_>
          <internalNodes>
            0 -1 88 480032625 442798410 -1858012465 -1760770038
            -1324817239 -1568145407 -935044469 -1446289012</internalNodes>
          <leafValues>
            -5.7094156742095947e-01 3.2708573341369629e-01</leafValues></_>
        <_>
          <internalNodes>
            0 -1 0 -848370710 -25432322 939515219 -540147886 -545413143
            -541114498 -805877845 -2152994</internalNodes>
          <leafValues>
            -3.3641704916954041e-01 5.2160650491714478e-01</leafValues></_>
        <_>
          <internalNodes>
            0 -1 94 -799762331 1513947559 -503129987 357840704
            -523399020 -803799000 -337069649 168491387</internalNodes>
          <leafValues>
            -4.8034512996673584e-01 3.6694678664207458e-01</leafValues></_>
        <_>
          <internalNodes>
            0 -1 31 -1164259601 1884487809 1059706515 -771440613
            250108335 671154179 370741937 1537697231</internalNodes>
          <leafValues>
            -5.1743394136428833e-01 3.3776691555976868e-01</leafValues></_>
        <_>
          <internalNodes>
            0 -1 90 -1020740480 -1681915740 273500401 -708009648
            -1551589370 -1699569536 965378715 -1752493907</internalNodes>
          <leafValues>
            -4.0990829467773438e-01 4.2657274007797241e-01</leafValues></_>
        <_>
          <internalNodes>
            0 -1 4 -1895632521 1548620288 -2096163889 -1723055082
            671571177 531693737 1351288939 -78794585</internalNodes>
          <leafValues>
            -4.0118014812469482e-01 4.6283021569252014e-01</leafValues></_>
        <_>
          <internalNodes>
            0 -1 59 1450546778 2083885194 1216384289 1225101441
            1346907588 1879966080 -1979692854 990514568</internalNodes>
          <leafValues>
            -5.8157974481582642e-01 3.2194054126739502e-01</leafValues></_></weakClassifiers></_></stages>
  <features>
    <_>
      <rect>
        0 0 1 1</rect></_>
    <_>
      <rect>
        0 0 2 1</rect></_>
    <_>
      <rect>
        0 0 3 2</rect></_>
    <_>
      <rect>
        0 0 5 5</rect></_>
    <_>
      <rect>
        0 1 3 2</rect></_>
    <_>
      <rect>
        0 2 1 1</rect></_>
    <_>
      <rect>
        0 3 1 1</rect></_>
    <_>
      <rect>
        0 3 2 3</rect></_>
    <_>
      <rect>
        0 3 6 3</rect></_>
    <_>
      <rect>
        0 4 1 2</rect></_>
    <_>
      <rect>
        0 5 1 4</rect></_>
    <_>
      <rect>
        0 5 3 1</rect></_>
    <_>
      <rect>
        0 6 1 3</rect></_>
    <_>
      <rect>
        0 7 1 4</rect></_>
    <_>
      <rect>
        0 7 2 1</rect></_>
    <_>
      <rect>
        0 8 2 2</rect></_>
    <_>
      <rect>
        0 9 1 3</rect></_>
    <_>
      <rect>
        0 10 2 3</rect></_>
    <_>
      <rect>
        0 11 1 2</rect></_>
    <_>
      <rect>
        0 12 1 2</rect></_>
    <_>
      <rect>
        0 13 1 2</rect></_>
    <_>
      <rect>
        0 13 2 2</rect></_>
    <_>
      <rect>
        0 14 1 1</rect></_>
    <_>
      <rect>
        0 15 1 1</rect></_>
    <_>
      <rect>
        0 15 3 1</rect></_>
    <_>
      <rect>
        0 16 3 1</rect></_>
    <_>
      <rect>
        0 17 1 1</rect></_>
    <_>
      <rect>
        1 0 5 2</rect></_>
    <_>
      <rect>
        1 1 6 2</rect></_>
    <_>
      <rect>
        1 3 2 1</rect></_>
    <_>
      <rect>
        1 6 2 1</rect></_>
    <_>
      <rect>
        1 7 2 2</rect></_>
    <_>
      <rect>
        1 7 3 1</rect></_>
    <_>
      <rect>
        1 10 3 1</rect></_>
    <_>
      <rect>
        1 17 2 1</rect></_>
    <_>
      <rect>
        2 0 2 1</rect></_>
    <_>
      <rect>
        2 0 6 2</rect></_>
    <_>
      <rect>
        2 0 6 6</rect></_>
    <_>
      <rect>
        2 1 3 1</rect></_>
    <_>
      <rect>
        2 1 6 4</rect></_>
    <_>
      <rect>
        2 2 6 4</rect></_>
    <_>
      <rect>
        2 7 2 2</rect></_>
    <_>
      <rect>
        2 7 5 4</rect></_>
    <_>
      <rect>
        2 8 1 1</rect></_>
    <_>
      <rect>
        2 8 3 2</rect></_>
    <_>
      <rect>
        2 10 2 2</rect></_>
    <_>
      <rect>
        2 16 4 1</rect></_>
    <_>
      <rect>
        3 0 1 1</rect></_>
    <_>
      <rect>
        3 0 2 1</rect></_>
    <_>
      <rect>
        3 2 3 1</rect></_>
    <_>
      <rect>
        3 7 1 1</rect></_>
    <_>
      <rect>
        3 9 2 3</rect></_>
    <_>
      <rect>
        3 10 2 2</rect></_>
    <_>
      <rect>
        3 17 2 1</rect></_>
    <_>
      <rect>
        3 17 3 1</rect></_>
    <_>
      <rect>
        4 1 3 5</rect></_>
    <_>
      <rect>
        4 6 1 1</rect></_>
    <_>
      <rect>
        4 6 2 1</rect></_>
    <_>
      <rect>
        4 7 1 1</rect></_>
    <_>
      <rect>
        4 8 4 2</rect></_>
    <_>
      <rect>
        4 8 5 4</rect></_>
    <_>
      <rect>
        4 9 1 1</rect></_>
    <_>
      <rect>
        5 0 2 1</rect></_>
    <_>
      <rect>
        5 0 4 6</rect></_>
    <_>
      <rect>
        5 1 3 1</rect></_>
    <_>
      <rect>
        5 5 2 1</rect></_>
    <_>
      <rect>
        5 6 1 1</rect></_>
    <_>
      <rect>
        5 7 1 1</rect></_>
    <_>
      <rect>
        5 8 1 1</rect></_>
    <_>
      <rect>
        5 9 1 1</rect></_>
    <_>
      <rect>
        5 11 1 1</rect></_>
    <_>
      <rect>
        5 11 2 1</rect></_>
    <_>
      <rect>
        5 14 5 2</rect></_>
    <_>
      <rect>
        5 15 2 1</rect></_>
    <_>
      <rect>
        6 10 1 1</rect></_>
    <_>
      <rect>
        7 10 1 1</rect></_>
    <_>
      <rect>
        7 12 1 1</rect></_>
    <_>
      <rect>
        7 14 3 1</rect></_>
    <_>
      <rect>
        7 16 2 1</rect></_>
    <_>
      <rect>
        7 17 2 1</rect></_>
    <_>
      <rect>
        8 0 3 1</rect></_>
    <_>
      <rect>
        8 2 4 5</rect></_>
    <_>
      <rect>
        8 4 4 3</rect></_>
    <_>
      <rect>
        9 0 3 2</rect></_>
    <_>
      <rect>
        9 17 1 1</rect></_>
    <_>
      <rect>
        10 0 3 1</rect></_>
    <_>
      <rect>
        10 3 3 1</rect></_>
    <_>
      <rect>
        10 6 3 1</rect></_>
    <_>
      <rect>
        10 14 2 2</rect></_>
    <_>
      <rect>
        11 0 2 1</rect></_>
    <_>
      <rect>
        11 11 1 1</rect></_>
    <_>
      <rect>
        11 11 2 1</rect></_>
    <_>
      <rect>
        11 16 2 1</rect></_>
    <_>
      <rect>
        12 0 2 1</rect></_>
    <_>
      <rect>
        12 6 2 1</rect></_>
    <_>
      <rect>
        12 8 1 1</rect></_>
    <_>
      <rect>
        12 9 1 1</rect></_>
    <_>
      <rect>
        12 10 1 1</rect></_>
    <_>
      <rect>
        12 11 1 1</rect></_>
    <_>
      <rect>
        12 11 2 1</rect></_>
    <_>
      <rect>
        13 0 2 2</rect></_>
    <_>
      <rect>
        13 2 2 3</rect></_>
    <_>
      <rect>
        13 3 2 3</rect></_>
    <_>
      <rect>
        13 9 1 1</rect></_>
    <_>
      <rect>
        13 9 2 1</rect></_>
    <_>
      <rect>
        13 10 1 1</rect></_>
    <_>
      <rect>
        13 10 2 3</rect></_>
    <_>
      <rect>
        13 11 2 2</rect></_>
    <_>
      <rect>
        13 16 2 1</rect></_>
    <_>
      <rect>
        14 0 2 2</rect></_>
    <_>
      <rect>
        14 2 2 5</rect></_>
    <_>
      <rect>
        14 6 2 3</rect></_>
    <_>
      <rect>
        14 10 1 1</rect></_>
    <_>
      <rect>
        14 15 2 1</rect></_>
    <_>
      <rect>
        15 7 1 1</rect></_>
    <_>
      <rect>
        15 10 1 1</rect></_>
    <_>
      <rect>
        16 4 1 1</rect></_>
    <_>
      <rect>
        16 6 1 1</rect></_>
    <_>
      <rect>
        16 16 1 1</rect></_>
    <_>
      <rect>
        17 0 1 1</rect></_>
    <_>
      <rect>
        17 1 1 1</rect></_>
    <_>
      <rect>
        17 3 1 1</rect></_>
    <_>
      <rect>
        17 4 1 1</rect></_>
    <_>
      <rect>
        17 6 1 1</rect></_>
    <_>
      <rect>
        17 7 1 1</rect></_>
    <_>
      <rect>
        17 12 1 2</rect></_>
    <_>
      <rect>
        17 13 1 2</rect></_>
    <_>
      <rect>
        17 14 1 2</rect></_>
    <_>
      <rect>
        17 17 1 1</rect></_></features></cascade>
</opencv_storage>
