<?xml version="1.0"?>
<opencv_storage>
<stage9>
  <maxWeakCount>6</maxWeakCount>
  <stageThreshold>-1.0488731861114502e+00</stageThreshold>
  <weakClassifiers>
    <_>
      <internalNodes>
        0 -1 372 -671446354 1824454398 2143203158 -352395266 -838910741
        1048575999 -545275942 -268435457</internalNodes>
      <leafValues>
        -3.3567047119140625e-01 7.4394834041595459e-01</leafValues></_>
    <_>
      <internalNodes>
        0 -1 171 -537949185 -268440834 -285262161 -285233490 -33413
        -1073741825 2113869055 -8441857</internalNodes>
      <leafValues>
        -3.9724496006965637e-01 6.3595879077911377e-01</leafValues></_>
    <_>
      <internalNodes>
        0 -1 861 -736371304 -120481315 151122330 -1244294880 -1862237747
        -53093923 -1987523197 662139823</internalNodes>
      <leafValues>
        -7.2384727001190186e-01 3.6759892106056213e-01</leafValues></_>
    <_>
      <internalNodes>
        0 -1 2567 647976599 676626684 201428252 974245988 435705844
        -359557956 772633280 -356791141</internalNodes>
      <leafValues>
        -6.1855262517929077e-01 4.1270428895950317e-01</leafValues></_>
    <_>
      <internalNodes>
        0 -1 3498 -112293728 -1614268238 1302986868 1572551816
        -1921548910 795836223 393418133 -269494853</internalNodes>
      <leafValues>
        -4.5654520392417908e-01 5.3140157461166382e-01</leafValues></_>
    <_>
      <internalNodes>
        0 -1 3961 -1962732758 -1245585129 -804601450 923730183 168743584
        -234848254 -1878810164 -657489205</internalNodes>
      <leafValues>
        -5.9640568494796753e-01 4.0008172392845154e-01</leafValues></_></weakClassifiers></stage9>
</opencv_storage>
