<?xml version="1.0"?>
<opencv_storage>
<stage7>
  <maxWeakCount>6</maxWeakCount>
  <stageThreshold>-9.5892310142517090e-01</stageThreshold>
  <weakClassifiers>
    <_>
      <internalNodes>
        0 -1 139 -284233818 -823198212 2146365158 -806433632 -8388623
        -268500996 -1115822234 -337132476</internalNodes>
      <leafValues>
        -4.8214286565780640e-01 6.8060839176177979e-01</leafValues></_>
    <_>
      <internalNodes>
        0 -1 1011 -238835710 1938148449 -1324351057 -582758382 1773320
        890890258 -83871829 -7353541</internalNodes>
      <leafValues>
        -6.1619323492050171e-01 5.0742042064666748e-01</leafValues></_>
    <_>
      <internalNodes>
        0 -1 2065 780105727 752619973 498090493 701355091 1630223839
        -595441205 411663102 -1340018</internalNodes>
      <leafValues>
        -5.7508265972137451e-01 5.1973140239715576e-01</leafValues></_>
    <_>
      <internalNodes>
        0 -1 1614 -1280070864 -82673388 -927989539 -2894444 -1558016837
        -417150073 905984143 -1080094448</internalNodes>
      <leafValues>
        -5.1372379064559937e-01 5.6586384773254395e-01</leafValues></_>
    <_>
      <internalNodes>
        0 -1 3408 676216567 990999359 -1071521793 -1179215619
        -1995353059 -74776020 -1638143301 -357016642</internalNodes>
      <leafValues>
        -5.4164320230484009e-01 5.4222273826599121e-01</leafValues></_>
    <_>
      <internalNodes>
        0 -1 3876 -50410369 -587506177 2097147903 -1825952195 -335635217
        -1346478753 -319094834 -366281445</internalNodes>
      <leafValues>
        -4.3333864212036133e-01 6.4358419179916382e-01</leafValues></_></weakClassifiers></stage7>
</opencv_storage>
