<?xml version="1.0"?>
<opencv_storage>
<stage11>
  <maxWeakCount>7</maxWeakCount>
  <stageThreshold>-1.3419491052627563e+00</stageThreshold>
  <weakClassifiers>
    <_>
      <internalNodes>
        0 -1 372 -436310226 -1405589765 -1363234836 -1560354818
        -587227605 -1 -16421 -553648129</internalNodes>
      <leafValues>
        -4.4008055329322815e-01 7.1599400043487549e-01</leafValues></_>
    <_>
      <internalNodes>
        0 -1 362 -926210249 -992390189 -942482465 2106627539 -371647633
        -190682790 -909608395 -69468909</internalNodes>
      <leafValues>
        -5.2937108278274536e-01 5.2405017614364624e-01</leafValues></_>
    <_>
      <internalNodes>
        0 -1 3866 -554234657 1610485503 -285212677 -1732609477
        -285713153 -18022657 -18874377 -1095043329</internalNodes>
      <leafValues>
        -4.4290885329246521e-01 6.0476207733154297e-01</leafValues></_>
    <_>
      <internalNodes>
        0 -1 2848 576730493 1374971391 -66561 1327103463 -294390059
        -32897 1045954431 -1366835625</internalNodes>
      <leafValues>
        -4.3765994906425476e-01 5.0847738981246948e-01</leafValues></_>
    <_>
      <internalNodes>
        0 -1 3906 -186897152 1435899719 -1333362231 -119645771
        -502860827 -121729006 -706422351 -524234913</internalNodes>
      <leafValues>
        -5.2866476774215698e-01 4.4993445277214050e-01</leafValues></_>
    <_>
      <internalNodes>
        0 -1 3629 216266239 1032246558 153092441 -1354287958 328337691
        419565641 565446109 -537949441</internalNodes>
      <leafValues>
        -6.6208153963088989e-01 3.5371020436286926e-01</leafValues></_>
    <_>
      <internalNodes>
        0 -1 2523 -128201062 -649022962 4345988 1929510959 -1878912688
        1359678475 1797163400 -81190001</internalNodes>
      <leafValues>
        -5.1067817211151123e-01 4.8971003293991089e-01</leafValues></_></weakClassifiers></stage11>
</opencv_storage>
