<?xml version="1.0"?>
<opencv_storage>
<stage14>
  <maxWeakCount>9</maxWeakCount>
  <stageThreshold>-6.0729819536209106e-01</stageThreshold>
  <weakClassifiers>
    <_>
      <internalNodes>
        0 -1 0 -290553430 -8454404 -268480932 -573932520 -545314896
        -549470340 -8583358 -75561647</internalNodes>
      <leafValues>
        -3.2921811938285828e-01 6.5088754892349243e-01</leafValues></_>
    <_>
      <internalNodes>
        0 -1 3507 -1401037616 -1716851970 100600920 -33614596 376724917
        -1342177281 787956223 -1073750785</internalNodes>
      <leafValues>
        -4.1789856553077698e-01 5.1797527074813843e-01</leafValues></_>
    <_>
      <internalNodes>
        0 -1 1445 1213620597 1393844417 -645917409 -620707699
        -1474660015 -847148925 -1457878340 -543567717</internalNodes>
      <leafValues>
        -5.2077263593673706e-01 3.9749211072921753e-01</leafValues></_>
    <_>
      <internalNodes>
        0 -1 28 -787754497 -519975612 -1744670629 -1052551359
        -2147452783 -1467998201 848826884 268108366</internalNodes>
      <leafValues>
        -6.5930229425430298e-01 2.8311768174171448e-01</leafValues></_>
    <_>
      <internalNodes>
        0 -1 1806 603422291 -1390219776 -536936451 -818057997
        -2022220816 -1392541697 -820447814 -841022149</internalNodes>
      <leafValues>
        -3.6036148667335510e-01 5.5335432291030884e-01</leafValues></_>
    <_>
      <internalNodes>
        0 -1 1002 -428150238 -1897218524 -285217951 -202410628
        -1707435343 -421593164 123319515 -8662797</internalNodes>
      <leafValues>
        -3.6648014187812805e-01 5.5055594444274902e-01</leafValues></_>
    <_>
      <internalNodes>
        0 -1 3688 1141319368 135360577 -1342172719 286139663 1610993801
        -1610432384 1627759321 1066083471</internalNodes>
      <leafValues>
        -7.6047235727310181e-01 2.9056358337402344e-01</leafValues></_>
    <_>
      <internalNodes>
        0 -1 2547 -804481800 -1360004 1862168445 456736573 -566458472
        -293902691 1051208360 -1439032578</internalNodes>
      <leafValues>
        -3.8962006568908691e-01 5.1901614665985107e-01</leafValues></_>
    <_>
      <internalNodes>
        0 -1 3131 -804829148 -1014939098 1208074587 62772145 184464
        1619558464 -301890598 -2004116917</internalNodes>
      <leafValues>
        -4.8533090949058533e-01 4.1910666227340698e-01</leafValues></_></weakClassifiers></stage14>
</opencv_storage>
