<?xml version="1.0"?>
<opencv_storage>
<stage19>
  <maxWeakCount>9</maxWeakCount>
  <stageThreshold>-4.4776767492294312e-01</stageThreshold>
  <weakClassifiers>
    <_>
      <internalNodes>
        0 -1 751 -336271107 -1233334273 -1090519299 2063396863
        -269090955 -1090715780 -1082130443 -8520721</internalNodes>
      <leafValues>
        -2.1340964734554291e-01 7.0962297916412354e-01</leafValues></_>
    <_>
      <internalNodes>
        0 -1 403 -448593935 -55525638 -65667 -571345289 86730576
        -48433413 1071415117 -536885297</internalNodes>
      <leafValues>
        -3.3354949951171875e-01 5.5164104700088501e-01</leafValues></_>
    <_>
      <internalNodes>
        0 -1 3201 480032625 442798410 -1858012465 -1760770038
        -1324817239 -1568145407 -935044469 -1446289012</internalNodes>
      <leafValues>
        -5.7094156742095947e-01 3.2708573341369629e-01</leafValues></_>
    <_>
      <internalNodes>
        0 -1 0 -848370710 -25432322 939515219 -540147886 -545413143
        -541114498 -805877845 -2152994</internalNodes>
      <leafValues>
        -3.3641704916954041e-01 5.2160650491714478e-01</leafValues></_>
    <_>
      <internalNodes>
        0 -1 3472 -799762331 1513947559 -503129987 357840704 -523399020
        -803799000 -337069649 168491387</internalNodes>
      <leafValues>
        -4.8034512996673584e-01 3.6694678664207458e-01</leafValues></_>
    <_>
      <internalNodes>
        0 -1 605 -1164259601 1884487809 1059706515 -771440613 250108335
        671154179 370741937 1537697231</internalNodes>
      <leafValues>
        -5.1743394136428833e-01 3.3776691555976868e-01</leafValues></_>
    <_>
      <internalNodes>
        0 -1 3366 -1020740480 -1681915740 273500401 -708009648
        -1551589370 -1699569536 965378715 -1752493907</internalNodes>
      <leafValues>
        -4.0990829467773438e-01 4.2657274007797241e-01</leafValues></_>
    <_>
      <internalNodes>
        0 -1 49 -1895632521 1548620288 -2096163889 -1723055082 671571177
        531693737 1351288939 -78794585</internalNodes>
      <leafValues>
        -4.0118014812469482e-01 4.6283021569252014e-01</leafValues></_>
    <_>
      <internalNodes>
        0 -1 1667 1450546778 2083885194 1216384289 1225101441 1346907588
        1879966080 -1979692854 990514568</internalNodes>
      <leafValues>
        -5.8157974481582642e-01 3.2194054126739502e-01</leafValues></_></weakClassifiers></stage19>
</opencv_storage>
