<?xml version="1.0"?>
<opencv_storage>
<stage10>
  <maxWeakCount>7</maxWeakCount>
  <stageThreshold>-1.1023688316345215e+00</stageThreshold>
  <weakClassifiers>
    <_>
      <internalNodes>
        0 -1 2063 863895420 935116734 2146303926 1073675262 1073739245
        -1073807617 1962934267 -268435457</internalNodes>
      <leafValues>
        -3.7295082211494446e-01 6.7391306161880493e-01</leafValues></_>
    <_>
      <internalNodes>
        0 -1 762 174551857 -705461549 -922566189 -136330315 581850107
        -356286072 1701446387 -541259344</internalNodes>
      <leafValues>
        -4.9931722879409790e-01 5.0216507911682129e-01</leafValues></_>
    <_>
      <internalNodes>
        0 -1 1618 -164517967 -755478568 -409739 -68027660 -1574842181
        -51368286 252936191 -1690172031</internalNodes>
      <leafValues>
        -4.3772277235984802e-01 5.1897394657135010e-01</leafValues></_>
    <_>
      <internalNodes>
        0 -1 1674 -419763573 -1372131594 -285806043 -1497461260
        -2143309921 -1371572353 -1195710997 -1075054629</internalNodes>
      <leafValues>
        -3.4720665216445923e-01 5.8886206150054932e-01</leafValues></_>
    <_>
      <internalNodes>
        0 -1 804 537119827 -1466429292 -654290467 -1013444311 547363874
        1244958952 185205243 -2887025</internalNodes>
      <leafValues>
        -4.5425236225128174e-01 4.7502896189689636e-01</leafValues></_>
    <_>
      <internalNodes>
        0 -1 3929 -695631460 -598601582 -1073692656 419578076
        -1073531984 -134070142 -2099031654 -1172654054</internalNodes>
      <leafValues>
        -4.5655849575996399e-01 4.5856273174285889e-01</leafValues></_>
    <_>
      <internalNodes>
        0 -1 1378 -769927566 1397891435 137373242 924388441 -1996355672
        1786974216 -373283313 792457867</internalNodes>
      <leafValues>
        -4.7191146016120911e-01 4.5883527398109436e-01</leafValues></_></weakClassifiers></stage10>
</opencv_storage>
