<?xml version="1.0"?>
<opencv_storage>
<stage12>
  <maxWeakCount>8</maxWeakCount>
  <stageThreshold>-6.6745793819427490e-01</stageThreshold>
  <weakClassifiers>
    <_>
      <internalNodes>
        0 -1 3968 -295440608 -151535625 -1064972 -12587018 -524459
        2013265919 -134217932 -9</internalNodes>
      <leafValues>
        -2.3885349929332733e-01 7.4541282653808594e-01</leafValues></_>
    <_>
      <internalNodes>
        0 -1 580 -5243142 -16646 2143221623 -32 -854658125 -280397888
        1275557107 -581443337</internalNodes>
      <leafValues>
        -4.0465265512466431e-01 5.6109392642974854e-01</leafValues></_>
    <_>
      <internalNodes>
        0 -1 3943 -219266410 -764847012 -352585 1493466647 -33613484
        -118554898 -188944424 -92079206</internalNodes>
      <leafValues>
        -4.1404062509536743e-01 5.0311595201492310e-01</leafValues></_>
    <_>
      <internalNodes>
        0 -1 1929 -1779201352 -1197343300 -160961675 2134595933
        -1288457557 -515833888 522431967 -272657015</internalNodes>
      <leafValues>
        -3.6387866735458374e-01 5.2665323019027710e-01</leafValues></_>
    <_>
      <internalNodes>
        0 -1 3828 -271844224 -674357313 2079850493 -570438404 133628945
        -1614972938 -33750539 -7365155</internalNodes>
      <leafValues>
        -3.6095118522644043e-01 6.0548102855682373e-01</leafValues></_>
    <_>
      <internalNodes>
        0 -1 1125 541812587 680284182 696254781 101769229 940075056
        2024407432 989921786 -91521005</internalNodes>
      <leafValues>
        -7.7506804466247559e-01 2.8187593817710876e-01</leafValues></_>
    <_>
      <internalNodes>
        0 -1 672 -66914014 -1588361642 -1807471300 320153740 -337515392
        1107558416 -1220345093 -1351409461</internalNodes>
      <leafValues>
        -4.5813980698585510e-01 4.5814096927642822e-01</leafValues></_>
    <_>
      <internalNodes>
        0 -1 3219 41336699 469712894 -16401 1039495149 -1073816079
        -1073840143 -1615462438 -1466221477</internalNodes>
      <leafValues>
        -4.4569662213325500e-01 4.6609917283058167e-01</leafValues></_></weakClassifiers></stage12>
</opencv_storage>
