<?xml version="1.0"?>
<opencv_storage>
<stage3>
  <maxWeakCount>6</maxWeakCount>
  <stageThreshold>-1.0299426317214966e+00</stageThreshold>
  <weakClassifiers>
    <_>
      <internalNodes>
        0 -1 368 -1929441757 788492287 2129657535 -93323269 2013216599
        -32769 -536911889 -1</internalNodes>
      <leafValues>
        -5.7627117633819580e-01 7.5097274780273438e-01</leafValues></_>
    <_>
      <internalNodes>
        0 -1 2653 -146282365 -539024461 -1865104999 -284977829
        -882540409 -354484093 419595459 804235167</internalNodes>
      <leafValues>
        -6.9673633575439453e-01 5.7534503936767578e-01</leafValues></_>
    <_>
      <internalNodes>
        0 -1 3036 645152767 1065320318 -16859265 -1174536193 -268469140
        -1091076097 -152240391 -1431425153</internalNodes>
      <leafValues>
        -5.2468657493591309e-01 6.8880617618560791e-01</leafValues></_>
    <_>
      <internalNodes>
        0 -1 3021 337906805 2138887799 -1359155585 -269697155 -134742563
        -2097154 -1342341123 -100737026</internalNodes>
      <leafValues>
        -5.3731715679168701e-01 5.7256776094436646e-01</leafValues></_>
    <_>
      <internalNodes>
        0 -1 200 -4207073 -335602641 -16826369 -335565074 805263138 -131
        493166142 -335862925</internalNodes>
      <leafValues>
        -4.6525028347969055e-01 6.5808027982711792e-01</leafValues></_>
    <_>
      <internalNodes>
        0 -1 1949 -1087664382 1892528162 -175042285 2007753857 143270554
        537707044 1227229979 -779136959</internalNodes>
      <leafValues>
        -5.6682592630386353e-01 5.5682617425918579e-01</leafValues></_></weakClassifiers></stage3>
</opencv_storage>
