<?xml version="1.0"?>
<opencv_storage>
<cascade>
  <stageType>BOOST</stageType>
  <featureType>HAAR</featureType>
  <height>50</height>
  <width>50</width>
  <stageParams>
    <boostType>GAB</boostType>
    <minHitRate>9.9500000476837158e-01</minHitRate>
    <maxFalseAlarm>5.0000000000000000e-01</maxFalseAlarm>
    <weightTrimRate>9.4999999999999996e-01</weightTrimRate>
    <maxDepth>1</maxDepth>
    <maxWeakCount>100</maxWeakCount></stageParams>
  <featureParams>
    <maxCatCount>0</maxCatCount>
    <featSize>1</featSize>
    <mode>BASIC</mode></featureParams>
  <stageNum>4</stageNum>
  <stages>
    <!-- stage 0 -->
    <_>
      <maxWeakCount>4</maxWeakCount>
      <stageThreshold>-1.3794469833374023e+00</stageThreshold>
      <weakClassifiers>
        <_>
          <internalNodes>
            0 -1 11 -3.4956145100295544e-03</internalNodes>
          <leafValues>
            7.2918981313705444e-01 -7.2357726097106934e-01</leafValues></_>
        <_>
          <internalNodes>
            0 -1 3 1.8269130960106850e-02</internalNodes>
          <leafValues>
            4.9301579594612122e-01 -8.5384881496429443e-01</leafValues></_>
        <_>
          <internalNodes>
            0 -1 15 3.2615181407891214e-04</internalNodes>
          <leafValues>
            -5.3221589326858521e-01 5.4054540395736694e-01</leafValues></_>
        <_>
          <internalNodes>
            0 -1 2 -6.2051929533481598e-02</internalNodes>
          <leafValues>
            8.0174881219863892e-01 -3.4256637096405029e-01</leafValues></_></weakClassifiers></_>
    <!-- stage 1 -->
    <_>
      <maxWeakCount>7</maxWeakCount>
      <stageThreshold>-1.8641824722290039e+00</stageThreshold>
      <weakClassifiers>
        <_>
          <internalNodes>
            0 -1 8 -1.5325945569202304e-03</internalNodes>
          <leafValues>
            4.9733570218086243e-01 -7.7147018909454346e-01</leafValues></_>
        <_>
          <internalNodes>
            0 -1 27 -2.3759596049785614e-02</internalNodes>
          <leafValues>
            4.8751723766326904e-01 -6.0048288106918335e-01</leafValues></_>
        <_>
          <internalNodes>
            0 -1 10 2.0223958417773247e-02</internalNodes>
          <leafValues>
            -5.1095008850097656e-01 4.9527183175086975e-01</leafValues></_>
        <_>
          <internalNodes>
            0 -1 23 -3.4713183995336294e-03</internalNodes>
          <leafValues>
            -8.7857413291931152e-01 2.6978138089179993e-01</leafValues></_>
        <_>
          <internalNodes>
            0 -1 4 3.1425580382347107e-03</internalNodes>
          <leafValues>
            -3.1473714113235474e-01 7.1939718723297119e-01</leafValues></_>
        <_>
          <internalNodes>
            0 -1 13 2.4591088294982910e-02</internalNodes>
          <leafValues>
            -6.6160929203033447e-01 3.3992394804954529e-01</leafValues></_>
        <_>
          <internalNodes>
            0 -1 25 3.3705588430166245e-03</internalNodes>
          <leafValues>
            -3.6271443963050842e-01 5.0929480791091919e-01</leafValues></_></weakClassifiers></_>
    <!-- stage 2 -->
    <_>
      <maxWeakCount>9</maxWeakCount>
      <stageThreshold>-1.4817200899124146e+00</stageThreshold>
      <weakClassifiers>
        <_>
          <internalNodes>
            0 -1 17 -2.1455001831054688e-01</internalNodes>
          <leafValues>
            2.4207687377929688e-01 -8.4464108943939209e-01</leafValues></_>
        <_>
          <internalNodes>
            0 -1 1 4.6376092359423637e-03</internalNodes>
          <leafValues>
            -4.5580092072486877e-01 7.1883875131607056e-01</leafValues></_>
        <_>
          <internalNodes>
            0 -1 16 5.1141320727765560e-04</internalNodes>
          <leafValues>
            -4.5461666584014893e-01 5.0937640666961670e-01</leafValues></_>
        <_>
          <internalNodes>
            0 -1 19 2.0287223160266876e-03</internalNodes>
          <leafValues>
            2.7098122239112854e-01 -8.8166713714599609e-01</leafValues></_>
        <_>
          <internalNodes>
            0 -1 21 1.1483391281217337e-03</internalNodes>
          <leafValues>
            -4.1457220911979675e-01 6.0977733135223389e-01</leafValues></_>
        <_>
          <internalNodes>
            0 -1 0 -2.8924224898219109e-02</internalNodes>
          <leafValues>
            4.5787248015403748e-01 -4.0112808346748352e-01</leafValues></_>
        <_>
          <internalNodes>
            0 -1 6 8.6407864000648260e-04</internalNodes>
          <leafValues>
            -4.1902682185173035e-01 5.1739746332168579e-01</leafValues></_>
        <_>
          <internalNodes>
            0 -1 22 6.5294420346617699e-03</internalNodes>
          <leafValues>
            2.0500442385673523e-01 -8.6365163326263428e-01</leafValues></_>
        <_>
          <internalNodes>
            0 -1 24 1.6796169802546501e-04</internalNodes>
          <leafValues>
            -7.7491223812103271e-01 2.0031876862049103e-01</leafValues></_></weakClassifiers></_>
    <!-- stage 3 -->
    <_>
      <maxWeakCount>8</maxWeakCount>
      <stageThreshold>-1.4301033020019531e+00</stageThreshold>
      <weakClassifiers>
        <_>
          <internalNodes>
            0 -1 12 -4.2969640344381332e-03</internalNodes>
          <leafValues>
            6.4341086149215698e-01 -6.7689418792724609e-01</leafValues></_>
        <_>
          <internalNodes>
            0 -1 9 5.3527164272964001e-03</internalNodes>
          <leafValues>
            -5.4157006740570068e-01 5.3267508745193481e-01</leafValues></_>
        <_>
          <internalNodes>
            0 -1 26 -4.3248245492577553e-04</internalNodes>
          <leafValues>
            -9.0290546417236328e-01 3.0206373333930969e-01</leafValues></_>
        <_>
          <internalNodes>
            0 -1 5 -5.3647685796022415e-02</internalNodes>
          <leafValues>
            7.1606630086898804e-01 -3.3609321713447571e-01</leafValues></_>
        <_>
          <internalNodes>
            0 -1 14 6.4031705260276794e-02</internalNodes>
          <leafValues>
            -5.1518476009368896e-01 7.5331360101699829e-01</leafValues></_>
        <_>
          <internalNodes>
            0 -1 18 2.3822883144021034e-02</internalNodes>
          <leafValues>
            -8.7398052215576172e-01 3.4218493103981018e-01</leafValues></_>
        <_>
          <internalNodes>
            0 -1 20 -5.6019760668277740e-03</internalNodes>
          <leafValues>
            5.7035505771636963e-01 -3.8533353805541992e-01</leafValues></_>
        <_>
          <internalNodes>
            0 -1 7 -1.4934508362784982e-03</internalNodes>
          <leafValues>
            6.3083773851394653e-01 -2.8023490309715271e-01</leafValues></_></weakClassifiers></_></stages>
  <features>
    <_>
      <rects>
        <_>
          0 15 28 9 -1.</_>
        <_>
          14 15 14 9 2.</_></rects>
      <tilted>0</tilted></_>
    <_>
      <rects>
        <_>
          0 26 17 9 -1.</_>
        <_>
          0 29 17 3 3.</_></rects>
      <tilted>0</tilted></_>
    <_>
      <rects>
        <_>
          0 30 24 20 -1.</_>
        <_>
          12 30 12 20 2.</_></rects>
      <tilted>0</tilted></_>
    <_>
      <rects>
        <_>
          0 41 6 9 -1.</_>
        <_>
          3 41 3 9 2.</_></rects>
      <tilted>0</tilted></_>
    <_>
      <rects>
        <_>
          2 9 5 21 -1.</_>
        <_>
          2 16 5 7 3.</_></rects>
      <tilted>0</tilted></_>
    <_>
      <rects>
        <_>
          2 30 18 19 -1.</_>
        <_>
          11 30 9 19 2.</_></rects>
      <tilted>0</tilted></_>
    <_>
      <rects>
        <_>
          6 1 26 2 -1.</_>
        <_>
          6 1 13 1 2.</_>
        <_>
          19 2 13 1 2.</_></rects>
      <tilted>0</tilted></_>
    <_>
      <rects>
        <_>
          6 32 7 9 -1.</_>
        <_>
          6 35 7 3 3.</_></rects>
      <tilted>0</tilted></_>
    <_>
      <rects>
        <_>
          8 18 8 8 -1.</_>
        <_>
          8 22 8 4 2.</_></rects>
      <tilted>0</tilted></_>
    <_>
      <rects>
        <_>
          9 3 16 12 -1.</_>
        <_>
          9 7 16 4 3.</_></rects>
      <tilted>0</tilted></_>
    <_>
      <rects>
        <_>
          10 3 38 12 -1.</_>
        <_>
          10 7 38 4 3.</_></rects>
      <tilted>0</tilted></_>
    <_>
      <rects>
        <_>
          11 19 22 6 -1.</_>
        <_>
          11 21 22 2 3.</_></rects>
      <tilted>0</tilted></_>
    <_>
      <rects>
        <_>
          11 19 23 6 -1.</_>
        <_>
          11 21 23 2 3.</_></rects>
      <tilted>0</tilted></_>
    <_>
      <rects>
        <_>
          12 30 14 20 -1.</_>
        <_>
          12 40 14 10 2.</_></rects>
      <tilted>0</tilted></_>
    <_>
      <rects>
        <_>
          16 29 19 21 -1.</_>
        <_>
          16 36 19 7 3.</_></rects>
      <tilted>0</tilted></_>
    <_>
      <rects>
        <_>
          17 22 13 6 -1.</_>
        <_>
          17 24 13 2 3.</_></rects>
      <tilted>0</tilted></_>
    <_>
      <rects>
        <_>
          18 22 14 6 -1.</_>
        <_>
          18 24 14 2 3.</_></rects>
      <tilted>0</tilted></_>
    <_>
      <rects>
        <_>
          19 5 25 45 -1.</_>
        <_>
          19 20 25 15 3.</_></rects>
      <tilted>0</tilted></_>
    <_>
      <rects>
        <_>
          20 20 10 22 -1.</_>
        <_>
          20 31 10 11 2.</_></rects>
      <tilted>0</tilted></_>
    <_>
      <rects>
        <_>
          26 0 2 2 -1.</_>
        <_>
          26 1 2 1 2.</_></rects>
      <tilted>0</tilted></_>
    <_>
      <rects>
        <_>
          26 18 24 5 -1.</_>
        <_>
          34 18 8 5 3.</_></rects>
      <tilted>0</tilted></_>
    <_>
      <rects>
        <_>
          27 12 6 6 -1.</_>
        <_>
          27 14 6 2 3.</_></rects>
      <tilted>0</tilted></_>
    <_>
      <rects>
        <_>
          29 32 18 10 -1.</_>
        <_>
          35 32 6 10 3.</_></rects>
      <tilted>0</tilted></_>
    <_>
      <rects>
        <_>
          32 0 18 23 -1.</_>
        <_>
          41 0 9 23 2.</_></rects>
      <tilted>0</tilted></_>
    <_>
      <rects>
        <_>
          33 1 8 3 -1.</_>
        <_>
          37 1 4 3 2.</_></rects>
      <tilted>0</tilted></_>
    <_>
      <rects>
        <_>
          36 28 12 9 -1.</_>
        <_>
          36 31 12 3 3.</_></rects>
      <tilted>0</tilted></_>
    <_>
      <rects>
        <_>
          37 33 6 3 -1.</_>
        <_>
          40 33 3 3 2.</_></rects>
      <tilted>0</tilted></_>
    <_>
      <rects>
        <_>
          45 9 3 39 -1.</_>
        <_>
          45 22 3 13 3.</_></rects>
      <tilted>0</tilted></_></features></cascade>
</opencv_storage>
