<?xml version="1.0"?>
<opencv_storage>
<stage12>
  <maxWeakCount>10</maxWeakCount>
  <stageThreshold>-9.6123760938644409e-01</stageThreshold>
  <weakClassifiers>
    <_>
      <internalNodes>
        0 -1 325 -268457233 -335597577 -285298962 -268554578 -8421889
        1539259647 -16777218 -16793682</internalNodes>
      <leafValues>
        -4.5154419541358948e-01 5.4526537656784058e-01</leafValues></_>
    <_>
      <internalNodes>
        0 -1 3928 -703119459 1633123537 -1073282409 325005907
        -1336941833 -637484351 -524085509 1073691551</internalNodes>
      <leafValues>
        -6.4434713125228882e-01 3.0673348903656006e-01</leafValues></_>
    <_>
      <internalNodes>
        0 -1 3967 -1242587353 18277065 -1897750228 -326398106
        -1144677057 706839587 533704992 -4197385</internalNodes>
      <leafValues>
        -5.0774002075195312e-01 3.2584950327873230e-01</leafValues></_>
    <_>
      <internalNodes>
        0 -1 1048 -76026281 995760223 2114614 1058669947 -896925500
        415367183 -1568625525 754708171</internalNodes>
      <leafValues>
        -4.1730511188507080e-01 4.0334632992744446e-01</leafValues></_>
    <_>
      <internalNodes>
        0 -1 175 -1295015309 1732367806 1478972181 1397064726 310993511
        -367932347 134964763 1328762887</internalNodes>
      <leafValues>
        -6.4051860570907593e-01 2.5095871090888977e-01</leafValues></_>
    <_>
      <internalNodes>
        0 -1 3369 -2021198864 -1149067046 1771378832 499978776
        -1467264615 445394051 948128473 -1646425697</internalNodes>
      <leafValues>
        -4.6963721513748169e-01 3.3935725688934326e-01</leafValues></_>
    <_>
      <internalNodes>
        0 -1 3308 -740562713 936805967 -1048520239 602564895 -519048980
        -1584193304 -255740994 539031307</internalNodes>
      <leafValues>
        -5.9891670942306519e-01 2.6019740104675293e-01</leafValues></_>
    <_>
      <internalNodes>
        0 -1 2272 -646447376 1006190463 779775863 805191679 -289536584
        -2146402 -1544147206 -1074021893</internalNodes>
      <leafValues>
        -3.8718464970588684e-01 4.2741835117340088e-01</leafValues></_>
    <_>
      <internalNodes>
        0 -1 384 651130230 -670502581 -939435045 -1679829556 -1054183749
        -639006720 2056135457 -273454623</internalNodes>
      <leafValues>
        -4.8625108599662781e-01 3.5319814085960388e-01</leafValues></_>
    <_>
      <internalNodes>
        0 -1 1618 394470049 -1035151224 1409501783 -108932384 805553082
        -297047390 455165823 -1682369471</internalNodes>
      <leafValues>
        -5.0060510635375977e-01 3.0348873138427734e-01</leafValues></_></weakClassifiers></stage12>
</opencv_storage>
