<?xml version="1.0"?>
<opencv_storage>
<stage14>
  <maxWeakCount>10</maxWeakCount>
  <stageThreshold>-1.0732667446136475e+00</stageThreshold>
  <weakClassifiers>
    <_>
      <internalNodes>
        0 -1 3968 -278401564 -16393 -269484036 -8392833 -524355
        -536871073 -2124 -1</internalNodes>
      <leafValues>
        -4.0074557065963745e-01 6.4087063074111938e-01</leafValues></_>
    <_>
      <internalNodes>
        0 -1 2324 172697111 779389183 1822010679 751493591 -1509737947
        -807092126 2039217999 -358692022</internalNodes>
      <leafValues>
        -6.9065070152282715e-01 2.6950231194496155e-01</leafValues></_>
    <_>
      <internalNodes>
        0 -1 360 -469775665 -1963037059 787712942 -1124073810 83343293
        1987026735 -134218017 -1</internalNodes>
      <leafValues>
        -3.8179251551628113e-01 4.6414703130722046e-01</leafValues></_>
    <_>
      <internalNodes>
        0 -1 3828 -1881408080 -209577866 610359477 361222220 119612416
        -1744822072 293800432 1065828559</internalNodes>
      <leafValues>
        -4.6064144372940063e-01 3.5397905111312866e-01</leafValues></_>
    <_>
      <internalNodes>
        0 -1 3843 -2146432290 -1196521075 1967297430 1017120583
        -165614636 -442981226 -114826326 -1900875874</internalNodes>
      <leafValues>
        -5.5568516254425049e-01 2.5827112793922424e-01</leafValues></_>
    <_>
      <internalNodes>
        0 -1 2523 -103032070 -621761729 846883824 859323258 -42008424
        658386805 -268656677 -12593153</internalNodes>
      <leafValues>
        -3.2443004846572876e-01 5.0979816913604736e-01</leafValues></_>
    <_>
      <internalNodes>
        0 -1 2547 -654035120 -582410195 269370137 328478761 -1727483760
        -69466470 -1607169844 -1146476082</internalNodes>
      <leafValues>
        -3.9150229096412659e-01 4.1744193434715271e-01</leafValues></_>
    <_>
      <internalNodes>
        0 -1 115 2102916051 -720199014 -2096588930 -673462694
        -1702862448 -2011165809 -1350327332 -545831561</internalNodes>
      <leafValues>
        -4.1380384564399719e-01 3.8264790177345276e-01</leafValues></_>
    <_>
      <internalNodes>
        0 -1 3624 -575938126 -609403458 234689976 -46718980 1006271517
        796868602 653546997 -73458257</internalNodes>
      <leafValues>
        -3.1675782799720764e-01 5.0213909149169922e-01</leafValues></_>
    <_>
      <internalNodes>
        0 -1 0 -827610130 -8454418 -1207960099 -577995619 -153700
        -813744260 -9037910 -16951952</internalNodes>
      <leafValues>
        -3.9367529749870300e-01 4.4990864396095276e-01</leafValues></_></weakClassifiers></stage14>
</opencv_storage>
