<?xml version="1.0"?>
<opencv_storage>
<stage9>
  <maxWeakCount>8</maxWeakCount>
  <stageThreshold>-9.8144793510437012e-01</stageThreshold>
  <weakClassifiers>
    <_>
      <internalNodes>
        0 -1 362 -354449601 -299913027 -238816833 -5385387 -121799825
        -24448929 -337617307 -5341</internalNodes>
      <leafValues>
        -5.7717251777648926e-01 4.8272806406021118e-01</leafValues></_>
    <_>
      <internalNodes>
        0 -1 3907 -2484980 1594329567 -2115512158 217232019 -158427173
        -7666686 -1144214529 -1162167301</internalNodes>
      <leafValues>
        -5.9674680233001709e-01 3.8605237007141113e-01</leafValues></_>
    <_>
      <internalNodes>
        0 -1 906 -512491538 -238814723 -465503333 -251550615 828354475
        -94717269 -293427538 770114823</internalNodes>
      <leafValues>
        -5.9504204988479614e-01 3.2053223252296448e-01</leafValues></_>
    <_>
      <internalNodes>
        0 -1 3777 670801667 568760989 -1854714595 -1359258977 2013501999
        546894018 -1164259292 -1879053426</internalNodes>
      <leafValues>
        -6.3003551959991455e-01 2.9532045125961304e-01</leafValues></_>
    <_>
      <internalNodes>
        0 -1 3741 -219704290 1473183963 -1875276650 366159103 858805349
        1334661400 1787517641 1004757487</internalNodes>
      <leafValues>
        -5.1389169692993164e-01 3.5285556316375732e-01</leafValues></_>
    <_>
      <internalNodes>
        0 -1 251 806075935 144689231 1310251742 -1085550448 324477759
        184942851 885724311 1847811854</internalNodes>
      <leafValues>
        -6.3406652212142944e-01 3.1229367852210999e-01</leafValues></_>
    <_>
      <internalNodes>
        0 -1 1990 -25762288 278798938 236122231 973756675 -1694037352
        791300877 -1081464438 -1149587297</internalNodes>
      <leafValues>
        -5.0457078218460083e-01 3.6504158377647400e-01</leafValues></_>
    <_>
      <internalNodes>
        0 -1 804 600035123 -1433370622 -1721706029 -272843750 974091061
        705939576 1799120315 -806141885</internalNodes>
      <leafValues>
        -5.2559161186218262e-01 3.6240050196647644e-01</leafValues></_></weakClassifiers></stage9>
</opencv_storage>
