<?xml version="1.0"?>
<opencv_storage>
<stage3>
  <maxWeakCount>8</maxWeakCount>
  <stageThreshold>-1.4301033020019531e+00</stageThreshold>
  <weakClassifiers>
    <_>
      <internalNodes>
        0 -1 1241065 -4.2969640344381332e-03</internalNodes>
      <leafValues>
        6.4341086149215698e-01 -6.7689418792724609e-01</leafValues></_>
    <_>
      <internalNodes>
        0 -1 1002804 5.3527164272964001e-03</internalNodes>
      <leafValues>
        -5.4157006740570068e-01 5.3267508745193481e-01</leafValues></_>
    <_>
      <internalNodes>
        0 -1 2844388 -4.3248245492577553e-04</internalNodes>
      <leafValues>
        -9.0290546417236328e-01 3.0206373333930969e-01</leafValues></_>
    <_>
      <internalNodes>
        0 -1 333717 -5.3647685796022415e-02</internalNodes>
      <leafValues>
        7.1606630086898804e-01 -3.3609321713447571e-01</leafValues></_>
    <_>
      <internalNodes>
        0 -1 1690681 6.4031705260276794e-02</internalNodes>
      <leafValues>
        -5.1518476009368896e-01 7.5331360101699829e-01</leafValues></_>
    <_>
      <internalNodes>
        0 -1 1979146 2.3822883144021034e-02</internalNodes>
      <leafValues>
        -8.7398052215576172e-01 3.4218493103981018e-01</leafValues></_>
    <_>
      <internalNodes>
        0 -1 2358795 -5.6019760668277740e-03</internalNodes>
      <leafValues>
        5.7035505771636963e-01 -3.8533353805541992e-01</leafValues></_>
    <_>
      <internalNodes>
        0 -1 772609 -1.4934508362784982e-03</internalNodes>
      <leafValues>
        6.3083773851394653e-01 -2.8023490309715271e-01</leafValues></_></weakClassifiers></stage3>
</opencv_storage>
