<?xml version="1.0"?>
<opencv_storage>
<stage13>
  <maxWeakCount>10</maxWeakCount>
  <stageThreshold>-1.1154049634933472e+00</stageThreshold>
  <weakClassifiers>
    <_>
      <internalNodes>
        0 -1 0 -386995218 -17825796 2013253085 -572522529 -8538129
        -16387 -276871233 -10785</internalNodes>
      <leafValues>
        -3.8035482168197632e-01 7.2464740276336670e-01</leafValues></_>
    <_>
      <internalNodes>
        0 -1 751 -899396923 -288843433 852247711 -1968405793 -1413123275
        -89620172 -240473611 -67124821</internalNodes>
      <leafValues>
        -5.1469242572784424e-01 3.6691933870315552e-01</leafValues></_>
    <_>
      <internalNodes>
        0 -1 1982 1448948185 1419751346 1065521626 -172365683 329375469
        2090519562 1283517583 -6580069</internalNodes>
      <leafValues>
        -4.2644035816192627e-01 3.9532342553138733e-01</leafValues></_>
    <_>
      <internalNodes>
        0 -1 2798 784269172 -1531592330 257187028 220527307 801302495
        -1416900448 1569411291 -69238471</internalNodes>
      <leafValues>
        -6.1521220207214355e-01 2.6992467045783997e-01</leafValues></_>
    <_>
      <internalNodes>
        0 -1 3756 -17181232 -538417602 -302055947 -571200300 932874291
        -805355522 502762713 -61283</internalNodes>
      <leafValues>
        -3.0590966343879700e-01 5.5261707305908203e-01</leafValues></_>
    <_>
      <internalNodes>
        0 -1 72 -2044517918 -993663740 -1033541426 -321017652 -660918128
        -123535343 1259034674 -8392222</internalNodes>
      <leafValues>
        -5.1039224863052368e-01 3.1395521759986877e-01</leafValues></_>
    <_>
      <internalNodes>
        0 -1 1969 -286867926 -692076827 2147480495 -604771139 585541543
        586652662 108527615 -1040344679</internalNodes>
      <leafValues>
        -3.4965670108795166e-01 4.6938240528106689e-01</leafValues></_>
    <_>
      <internalNodes>
        0 -1 1694 -272631049 1073709051 1052409727 1065304063
        -1082252294 -1 -1154793605 -138412033</internalNodes>
      <leafValues>
        -3.4504976868629456e-01 5.2959305047988892e-01</leafValues></_>
    <_>
      <internalNodes>
        0 -1 817 -1468729351 -727126086 -65665 -604733581 -240025738
        -34214026 -268632324 -909418753</internalNodes>
      <leafValues>
        -3.4806504845619202e-01 4.8453623056411743e-01</leafValues></_>
    <_>
      <internalNodes>
        0 -1 1760 39199571 1645512013 356680415 280531935 -1169410188
        -774754932 -78599269 -1947260405</internalNodes>
      <leafValues>
        -6.1738330125808716e-01 2.8035414218902588e-01</leafValues></_></weakClassifiers></stage13>
</opencv_storage>
