<?xml version="1.0"?>
<opencv_storage>
<stage7>
  <maxWeakCount>7</maxWeakCount>
  <stageThreshold>-9.6917140483856201e-01</stageThreshold>
  <weakClassifiers>
    <_>
      <internalNodes>
        0 -1 2580 544489333 -1261569 -536870913 -22249510 -108402211
        -22284289 -4097 -65537</internalNodes>
      <leafValues>
        -5.5783784389495850e-01 6.3179486989974976e-01</leafValues></_>
    <_>
      <internalNodes>
        0 -1 756 70452533 -1244158214 -887892549 -35816489 -1414568971
        -636752472 1676351119 -6334992</internalNodes>
      <leafValues>
        -5.3504657745361328e-01 5.0425100326538086e-01</leafValues></_>
    <_>
      <internalNodes>
        0 -1 982 -420479057 -9506822 -16826405 -43 224843503 510358210
        1466913783 -44025</internalNodes>
      <leafValues>
        -4.4602280855178833e-01 5.0257581472396851e-01</leafValues></_>
    <_>
      <internalNodes>
        0 -1 753 -430444545 548585562 1114937854 802862143 923891057
        1005300087 -72353037 -73797686</internalNodes>
      <leafValues>
        -5.8861279487609863e-01 3.8816109299659729e-01</leafValues></_>
    <_>
      <internalNodes>
        0 -1 1992 -214977014 1430589717 -1044079557 -1189798838
        822154000 925595648 1923293423 -3179889</internalNodes>
      <leafValues>
        -5.2587479352951050e-01 4.1560018062591553e-01</leafValues></_>
    <_>
      <internalNodes>
        0 -1 3492 -1056259454 -1585262601 756382468 -1692180969
        -251203472 8637095 -1584666375 -68161686</internalNodes>
      <leafValues>
        -4.8180067539215088e-01 4.4909909367561340e-01</leafValues></_>
    <_>
      <internalNodes>
        0 -1 3571 -87116465 -249818558 1550440887 1057117362 -901646049
        -845430519 -1012671841 673377559</internalNodes>
      <leafValues>
        -6.8312454223632812e-01 3.7992528080940247e-01</leafValues></_></weakClassifiers></stage7>
</opencv_storage>
