<?xml version="1.0"?>
<opencv_storage>
<stage5>
  <maxWeakCount>7</maxWeakCount>
  <stageThreshold>-1.0843310356140137e+00</stageThreshold>
  <weakClassifiers>
    <_>
      <internalNodes>
        0 -1 3091 -112857170 -11435321 1095169367 -438861449 -1274166901
        -561970916 -169876579 801091263</internalNodes>
      <leafValues>
        -6.6595894098281860e-01 4.7800585627555847e-01</leafValues></_>
    <_>
      <internalNodes>
        0 -1 3965 -1113605852 -2086955629 -2146352640 -78179966
        -1701842021 -892919678 -420761176 -3150449</internalNodes>
      <leafValues>
        -5.8619779348373413e-01 4.7289472818374634e-01</leafValues></_>
    <_>
      <internalNodes>
        0 -1 1011 -86397406 -242628315 -778904171 -552351237 1612189320
        2063812609 -74760966 -1312209</internalNodes>
      <leafValues>
        -5.5835318565368652e-01 4.4408872723579407e-01</leafValues></_>
    <_>
      <internalNodes>
        0 -1 311 1792740879 256974995 33701976 -2126262241 2006327612
        -243269616 -92046533 -338691521</internalNodes>
      <leafValues>
        -7.0832407474517822e-01 3.5292053222656250e-01</leafValues></_>
    <_>
      <internalNodes>
        0 -1 387 -125512199 -45585 -2049 -538181635 835253664 -1
        493975003 -538995561</internalNodes>
      <leafValues>
        -4.4462585449218750e-01 5.5364090204238892e-01</leafValues></_>
    <_>
      <internalNodes>
        0 -1 2337 -2010108459 -578381030 -1056844321 -12119627
        -1291120951 -1146155002 -1022879495 -1887429651</internalNodes>
      <leafValues>
        -4.7374379634857178e-01 4.5666378736495972e-01</leafValues></_>
    <_>
      <internalNodes>
        0 -1 3862 -180698914 -1283325931 1359151121 798244955
        -1022709560 -1714405272 -922570037 -2012173073</internalNodes>
      <leafValues>
        -5.9022521972656250e-01 3.6122038960456848e-01</leafValues></_></weakClassifiers></stage5>
</opencv_storage>
