<?xml version="1.0"?>
<opencv_storage>
<stage16>
  <maxWeakCount>10</maxWeakCount>
  <stageThreshold>-1.2571380138397217e+00</stageThreshold>
  <weakClassifiers>
    <_>
      <internalNodes>
        0 -1 1146 73823095 -268768257 -74529 -266753 1878949879
        -268506181 2147379036 -7342721</internalNodes>
      <leafValues>
        -4.5002645254135132e-01 5.5055004358291626e-01</leafValues></_>
    <_>
      <internalNodes>
        0 -1 580 -175112710 -553379762 -302787757 -69232384 -384853069
        -309384638 1159952375 -548445961</internalNodes>
      <leafValues>
        -4.5063501596450806e-01 4.3249043822288513e-01</leafValues></_>
    <_>
      <internalNodes>
        0 -1 366 -286285145 -436207625 -488673538 -84939009 -402694209
        -311558273 -209846274 -67108869</internalNodes>
      <leafValues>
        -3.7103509902954102e-01 4.9795383214950562e-01</leafValues></_>
    <_>
      <internalNodes>
        0 -1 46 2124293506 -926792562 1962984159 -658194262 -246061565
        -897389152 940916507 83847743</internalNodes>
      <leafValues>
        -6.6681373119354248e-01 2.4447512626647949e-01</leafValues></_>
    <_>
      <internalNodes>
        0 -1 3036 -1529544705 -185453986 1417121885 -1419935329
        -91631072 -130997829 -228054391 -1473635715</internalNodes>
      <leafValues>
        -4.1217294335365295e-01 3.8772746920585632e-01</leafValues></_>
    <_>
      <internalNodes>
        0 -1 1049 -67186693 1597208575 1064976315 1073446837 -16793730
        -1073741825 738148351 -1073741825</internalNodes>
      <leafValues>
        -3.1737121939659119e-01 5.4697936773300171e-01</leafValues></_>
    <_>
      <internalNodes>
        0 -1 3386 -1107869889 -1395289948 -1140833900 -1528723341
        -2054790209 -1431909493 -1545532991 -812648437</internalNodes>
      <leafValues>
        -5.0018042325973511e-01 3.6508294939994812e-01</leafValues></_>
    <_>
      <internalNodes>
        0 -1 651 -9706845 -1831298904 -1044316077 -96137980 -1826055511
        4202585 1937994417 2006151622</internalNodes>
      <leafValues>
        -4.4649252295494080e-01 3.6056247353553772e-01</leafValues></_>
    <_>
      <internalNodes>
        0 -1 3871 1298074733 -637698504 -257 1543444477 -1107766070
        -272670722 1794702969 -88941057</internalNodes>
      <leafValues>
        -3.8718408346176147e-01 4.3286317586898804e-01</leafValues></_>
    <_>
      <internalNodes>
        0 -1 2492 548315180 4687427 -854510226 2145161351 1887459578
        822647944 1204347053 731613597</internalNodes>
      <leafValues>
        -7.2806984186172485e-01 2.2652924060821533e-01</leafValues></_></weakClassifiers></stage16>
</opencv_storage>
