<?xml version="1.0"?>
<opencv_storage>
<stage2>
  <maxWeakCount>9</maxWeakCount>
  <stageThreshold>-1.4817200899124146e+00</stageThreshold>
  <weakClassifiers>
    <_>
      <internalNodes>
        0 -1 1875046 -2.1455001831054688e-01</internalNodes>
      <leafValues>
        2.4207687377929688e-01 -8.4464108943939209e-01</leafValues></_>
    <_>
      <internalNodes>
        0 -1 93140 4.6376092359423637e-03</internalNodes>
      <leafValues>
        -4.5580092072486877e-01 7.1883875131607056e-01</leafValues></_>
    <_>
      <internalNodes>
        0 -1 1835917 5.1141320727765560e-04</internalNodes>
      <leafValues>
        -4.5461666584014893e-01 5.0937640666961670e-01</leafValues></_>
    <_>
      <internalNodes>
        0 -1 2324142 2.0287223160266876e-03</internalNodes>
      <leafValues>
        2.7098122239112854e-01 -8.8166713714599609e-01</leafValues></_>
    <_>
      <internalNodes>
        0 -1 2404995 1.1483391281217337e-03</internalNodes>
      <leafValues>
        -4.1457220911979675e-01 6.0977733135223389e-01</leafValues></_>
    <_>
      <internalNodes>
        0 -1 62405 -2.8924224898219109e-02</internalNodes>
      <leafValues>
        4.5787248015403748e-01 -4.0112808346748352e-01</leafValues></_>
    <_>
      <internalNodes>
        0 -1 686982 8.6407864000648260e-04</internalNodes>
      <leafValues>
        -4.1902682185173035e-01 5.1739746332168579e-01</leafValues></_>
    <_>
      <internalNodes>
        0 -1 2531374 6.5294420346617699e-03</internalNodes>
      <leafValues>
        2.0500442385673523e-01 -8.6365163326263428e-01</leafValues></_>
    <_>
      <internalNodes>
        0 -1 2674594 1.6796169802546501e-04</internalNodes>
      <leafValues>
        -7.7491223812103271e-01 2.0031876862049103e-01</leafValues></_></weakClassifiers></stage2>
</opencv_storage>
