<?xml version="1.0"?>
<opencv_storage>
<stage18>
  <maxWeakCount>11</maxWeakCount>
  <stageThreshold>-1.1199779510498047e+00</stageThreshold>
  <weakClassifiers>
    <_>
      <internalNodes>
        0 -1 1 -286265362 -8912898 -1074532609 -258 -537411585 -32770
        -1082185745 -16814097</internalNodes>
      <leafValues>
        -3.7718492746353149e-01 6.2730628252029419e-01</leafValues></_>
    <_>
      <internalNodes>
        0 -1 2328 74540917 -73630753 -1206411978 257560732 2064239952
        -557612909 -1165465409 -5055863</internalNodes>
      <leafValues>
        -4.9117270112037659e-01 3.6057353019714355e-01</leafValues></_>
    <_>
      <internalNodes>
        0 -1 2290 -1428721195 285245307 -1790954072 -700327805 446707964
        -1346698030 2047371710 -1073778097</internalNodes>
      <leafValues>
        -4.8355937004089355e-01 3.1653279066085815e-01</leafValues></_>
    <_>
      <internalNodes>
        0 -1 2095 -33296421 1913757568 1090535639 1402051465 1141195043
        -1073626867 2030904801 927402243</internalNodes>
      <leafValues>
        -6.8907904624938965e-01 2.4908676743507385e-01</leafValues></_>
    <_>
      <internalNodes>
        0 -1 2211 -1007556687 -20300707 -1074003973 -44712255
        -1498369029 -609685508 352841663 -809532007</internalNodes>
      <leafValues>
        -3.5518231987953186e-01 4.6026349067687988e-01</leafValues></_>
    <_>
      <internalNodes>
        0 -1 3750 -775494352 -682916146 419484688 -65300 828572660
        50352143 457710616 -7448083</internalNodes>
      <leafValues>
        -4.1831639409065247e-01 4.0655815601348877e-01</leafValues></_>
    <_>
      <internalNodes>
        0 -1 3558 -1962992097 787903705 1510240351 403634651 -87896316
        -1735414 1518529380 976282395</internalNodes>
      <leafValues>
        -5.6915235519409180e-01 3.2557874917984009e-01</leafValues></_>
    <_>
      <internalNodes>
        0 -1 787 1692565479 -688554120 -65602 -270467214 679386190
        -813763332 -61472801 -612370609</internalNodes>
      <leafValues>
        -3.5480836033821106e-01 4.7349539399147034e-01</leafValues></_>
    <_>
      <internalNodes>
        0 -1 294 -628391418 -1638809117 -1064788896 -233598687
        -216182337 20060184 -1601633797 994716046</internalNodes>
      <leafValues>
        -5.3552955389022827e-01 3.0615857243537903e-01</leafValues></_>
    <_>
      <internalNodes>
        0 -1 2589 1593717 -150596452 -1786516009 -182712228 -338472876
        -1157436917 -1145535799 184576089</internalNodes>
      <leafValues>
        -6.6514456272125244e-01 2.5047466158866882e-01</leafValues></_>
    <_>
      <internalNodes>
        0 -1 2487 -422698995 919110977 1419623865 361141469 -1392428655
        -1198783107 -1448357252 636051631</internalNodes>
      <leafValues>
        -5.3012567758560181e-01 3.4160920977592468e-01</leafValues></_></weakClassifiers></stage18>
</opencv_storage>
