<?xml version="1.0"?>
<opencv_storage>
<stage17>
  <maxWeakCount>11</maxWeakCount>
  <stageThreshold>-1.0502964258193970e+00</stageThreshold>
  <weakClassifiers>
    <_>
      <internalNodes>
        0 -1 3535 -287769857 -1073784841 -1 1006600191 -67436801 -8193
        -196737 -1082395009</internalNodes>
      <leafValues>
        -3.8226881623268127e-01 5.8871912956237793e-01</leafValues></_>
    <_>
      <internalNodes>
        0 -1 2219 -491015215 -139189903 -570427433 -196611 -1493618703
        -84237511 -237732 -552778821</internalNodes>
      <leafValues>
        -3.0153447389602661e-01 5.6926149129867554e-01</leafValues></_>
    <_>
      <internalNodes>
        0 -1 2063 964681212 400478708 1493879254 1070256704 700052525
        -1082097511 -930985303 -1343632133</internalNodes>
      <leafValues>
        -4.6622583270072937e-01 3.3645838499069214e-01</leafValues></_>
    <_>
      <internalNodes>
        0 -1 3340 -975181084 -902233407 -310264389 -653432529
        -1297178504 588948112 -243082753 -1423711829</internalNodes>
      <leafValues>
        -3.7296470999717712e-01 3.7682446837425232e-01</leafValues></_>
    <_>
      <internalNodes>
        0 -1 2775 -645737814 -38500166 846361088 1999798008 -1294385536
        -11330699 -864575778 -8408837</internalNodes>
      <leafValues>
        -3.3329150080680847e-01 4.6377053856849670e-01</leafValues></_>
    <_>
      <internalNodes>
        0 -1 43 -309626112 -924953899 1100693840 -2006431588 748681261
        -666181044 1136853047 -722475695</internalNodes>
      <leafValues>
        -5.0629556179046631e-01 3.3165854215621948e-01</leafValues></_>
    <_>
      <internalNodes>
        0 -1 3720 -263041838 -1311571957 17416523 1502679509 -769125720
        -132775129 -356326985 -1708478625</internalNodes>
      <leafValues>
        -4.2862313985824585e-01 3.3447355031967163e-01</leafValues></_>
    <_>
      <internalNodes>
        0 -1 1068 -438341566 -187625425 -804243942 1095960859 -534717732
        -905969535 -955719046 -16515453</internalNodes>
      <leafValues>
        -3.7851279973983765e-01 3.9574712514877319e-01</leafValues></_>
    <_>
      <internalNodes>
        0 -1 3866 -855814946 1593781996 -270598153 -1287701901
        -285712899 -269713667 -52625409 -13468417</internalNodes>
      <leafValues>
        -3.4068080782890320e-01 4.3869137763977051e-01</leafValues></_>
    <_>
      <internalNodes>
        0 -1 1782 1148579699 -17420294 -32771 -915013768 -536903879
        -1880096771 -562770178 2071688511</internalNodes>
      <leafValues>
        -3.4645262360572815e-01 4.6947902441024780e-01</leafValues></_>
    <_>
      <internalNodes>
        0 -1 2946 -500776192 2025805679 1048541791 -42374365 -168362211
        -1207959553 -286785718 -162103037</internalNodes>
      <leafValues>
        -2.9955160617828369e-01 4.7774192690849304e-01</leafValues></_></weakClassifiers></stage17>
</opencv_storage>
